tree
version=v2
num_class=1
num_tree_per_iteration=1
label_index=0
max_feature_idx=27
objective=regression
feature_names=Column_0 Column_1 Column_2 Column_3 Column_4 Column_5 Column_6 Column_7 Column_8 Column_9 Column_10 Column_11 Column_12 Column_13 Column_14 Column_15 Column_16 Column_17 Column_18 Column_19 Column_20 Column_21 Column_22 Column_23 Column_24 Column_25 Column_26 Column_27
feature_infos=[4.200005:8.9998550000000002] [-56.624299999999998:56.723199999999999] [9.0168249999999999e-06:23.99991] [-371.46972800153532:118.3194560110569] [0:87] [0.11836639994109868:71.621223998246904] [0.31997599925863746:57.649529919388556] [-32.933208317583741:30.323146876998351] [1.9600000160932542:2799.8736683586712] [232.0520000076443:1049.698203735792] [236.10400000254808:1021.385325126648] [241.28126667044646:1020.2332390185346] [243.65121348563687:1020.2332390185346] [249.24873780550101:995.98410499999147] [252.63433392871289:1032.0629971221526] [253.39008254928271:1001.49681132747] [257.06729911420518:894.4805114610574] [259.4781570452256:789.36478537343703] [260.4007234357868:770.10334047421065] [262.28033314602715:765.3764807760972] [271.49944907893581:753.06734011596052] [277.11296237534918:734.39852356582981] [283.17723962019983:706.31718466780228] [291.36822723122322:699.20490474491066] [285.27638958893345:684.18357168987018] [315.77173163097194:621.75677976645716] [327.46989260978694:598.12077921569573] [175:3529]
tree_sizes=5572 5774 5768 5776 5774 5790 5781 5789 5796 5804 5802 5796 5797 5799 5814 5794 5817 5794 5816 5796 5811 5815 5812 5818 5817 5805 5813 5811 5810 5798 5813 5821 5795 5842 5817 5798 5823 5820 5817 5839 5825 5806 5813 5848 5838 5824 5848 5818 5839 5830 5821 5827 5849 5838 5830 5806 5826 5841 5838 5877 5833 5841 5817 5878 5835 5836 5849 5828 5830 5823 5825 5858 5854 5843 5816 5826 5852 5827 5825 5874 5850 5832 5792 5848 5827 5825 5820 5865 5791 5837 5834 5884 5829 5810 5803 5832 5795 5801 5832 5823 5809 5841 5847 5814 5829 5848 5835 5835 5799 5835 5811 5799 5795 5847 5848 5796 5864 5808 5846 5810 5830 5819 5846 5846 5861 5825 5825 5800 5801 5776 5790 5795 5802 5831 5787 5840 5803 5840 5844 5831 5810 5822 5782 5831 5789 5840 5831 5846 5842 5806 5832 5782 5827 5761 5782 5766 5795 5798 5831 5750 5829 5822 5802 5752 5764 5721 5759 5837 5785 5811 5849 5792 5734 5770 5807 5791 5747 5758 5755 5790 5780 5800 5823 5757 5820 5776 5791 5790 5790 5796 5789 5772 5704 5717 5785 5768 5745 5777 5793 5782 5731 5720 5783 5809 5762 5740 5811 5782 5854 5816 5784 5802 5741 5800 5747 5795 5801 5775 5758 5770 5721 5723 5824 5737 5763 5761 5715 5743 5826 5740 5790 5741 5822 5763 5765 5745 5781 5688 5820 5742 5781 5707 5818 5768 5818 5742 5759 5691 5790 5756 5822 5853 5760 5723 5790 5747 5758 5839 5791 5710 5749 5758 5794 5718 5747 5722 5722 5774 5732 5796 5707 5755 5763 5727 5800 5713 5820 5636 5702 5684 5744 5769 5778 5748 5753 5757 5812 5838 5747 5739 5789 5651 5791 5759 5758 5731 5684 5808 5607 5681

Tree=0
num_leaves=69
num_cat=0
split_feature=27 0 3 13 27 0 27 0 27 27 27 0 0 13 0 0 13 0 25 11 0 0 13 25 13 26 0 27 11 0 27 12 11 3 27 0 15 6 21 0 12 27 0 23 21 26 0 3 0 6 27 6 26 25 15 13 0 20 12 27 21 27 25 27 0 6 23 19
split_gain=889046 272189 150859 64951.7 59498.9 47128.5 41168.3 32810.1 36725.7 29966.2 26270.9 30465.5 22656.7 17642.2 15790.2 14150.7 9850.74 9150.19 8648.11 8216.78 7813.75 7720.99 7461.08 6773.17 6585.15 5955.24 5692.91 5645.76 4991.95 4928.67 4811.6 4808.58 4737.56 4724.12 4478.35 4201.08 3729.64 3718.4 3488 3428.53 3386.86 3322.51 4071.24 3271.85 3228.21 3226.09 3200.65 3027.17 2811.1 2754.81 2728.33 2672.65 2635.15 2540.34 2450.05 2449.42 2377.26 2242.56 2160.74 2147.52 2003.8 2583.41 1959.68 1922.45 1918.43 1884.97 1872.7 1851.89
threshold=888.05148747750582 4.8882265000000009 -15.00001066736869 391.17448975327761 591.16407643346759 4.6269235000000011 702.50000000000011 6.252850500000001 1243.0833504804723 1191.2321427892127 1117.0312015672687 4.5620225000000003 4.5320425000000011 414.08603928803547 6.8960995000000009 5.4426905000000003 401.50328145696875 5.2000295000000003 371.06125998995174 432.36531954255992 7.0906585000000009 5.2000295000000003 422.4541069012925 372.57399755460534 478.97542078914859 420.01682440497115 4.4740805000000012 438.38027205779952 453.57266690358193 6.9933280000000009 702.50000000000011 410.59670314357078 498.00150703985992 -27.478239992795583 1084.0386925055484 7.2563670000000009 342.99713562954372 4.2900035205669447 479.50740177720854 4.4403015000000012 321.8278356617721 1175.5000000000002 4.5559345000000011 354.92786985492177 511.76203713250561 382.81495389650428 4.9470835000000006 -31.99998399056506 4.7988055000000012 5.5651984003171462 1215.5000000000002 4.8736179224132163 448.66449112180129 390.79575702051153 320.04136051435825 436.05116060082452 4.8790375000000008 523.77761554015365 321.8278356617721 1117.0312015672687 390.78318033077147 1435.0000000000002 465.94546841388063 1002.2206484341228 7.1975760000000006 4.6985687934356379 395.18396617219656 316.93434010298887
decision_type=2 2 2 2 2 2 2 2 2 2 2 2 2 2 2 2 2 2 2 2 2 2 2 2 2 2 2 2 2 2 2 2 2 2 2 2 2 2 2 2 2 2 2 2 2 2 2 2 2 2 2 2 2 2 2 2 2 2 2 2 2 2 2 2 2 2 2 2
left_child=1 6 7 5 15 9 25 8 16 18 11 28 32 17 24 43 41 30 54 47 23 33 58 46 26 55 37 -17 44 48 -6 52 40 -21 56 -9 -19 50 51 59 -8 42 53 -3 -5 -11 -7 -10 -13 -42 -12 -20 -27 -2 -4 66 -25 -30 -14 62 -47 -62 -18 -56 -38 -26 -1 -43
right_child=2 4 3 10 13 20 12 35 19 45 14 29 22 -15 -16 27 39 36 38 21 -22 -23 -24 34 65 31 -28 -29 57 -31 -32 -33 -34 -35 -36 -37 64 -39 -40 -41 49 67 -44 -45 -46 60 -48 -49 -50 -51 -52 -53 -54 -55 63 -57 -58 -59 -60 -61 61 -63 -64 -65 -66 -67 -68 -69
leaf_value=5.8740200863622487 5.9194416758484838 5.8923802073827067 5.8679500612588331 5.9370700212434171 5.9185739182599759 5.9273891184372962 5.878562344397789 5.9716743943365049 6.0042404021705469 5.9166452822283464 5.9313445859607521 5.9648858469566575 5.9019141900368002 5.9702844459920161 5.9550025579990855 5.9182785375996803 5.9753337537170363 5.9448141239919599 5.9211571586452028 6.0179486708988907 5.9436402596877889 5.9943756600064271 5.9489847494766694 5.947378988467702 5.9865175246897575 5.8940515968612202 5.9836634549904852 5.9407083840877988 5.9588160189421675 5.9540663253878998 5.9434961140614391 5.9173819828603147 5.9244535953961712 6.0045911250731647 5.9733965791440973 5.9500774152767191 5.9590693926990834 5.9762664869792701 5.9016008536461033 5.9915051965479895 5.8949465912535297 6.0135403025235226 5.9727121551960058 5.9135078024276755 5.9021640583686086 5.971053121675121 5.9563561647744478 5.9873796935405759 5.9791024150413152 5.9089365444880873 5.963892869811219 5.9370472637288048 5.8757290953539103 5.9557655671902365 5.8753928196464962 5.8969404006483517 5.9646691731580557 5.93241639422211 5.9241750588897295 5.9887365903798351 5.9469740184608391 5.9680606317861367 5.9454003047776034 5.9155827409565287 5.9412719162467162 5.9964846020075369 5.8874211716499536 5.9773930499943093
leaf_count=117574 6049 30448 7289 55984 30990 13131 19962 77996 37985 4659 8705 43794 12829 129682 53165 44069 31642 88398 53752 137150 44186 87595 32483 25005 108106 77475 206730 77240 42347 28587 51661 18038 18676 128049 190385 31653 160374 59361 13070 150264 88401 4124 40693 46093 7515 25852 34845 89116 168992 58535 24725 52164 26315 23578 4242 17164 96966 9930 72839 26246 40545 22632 6608 10002 16720 84628 33568 25255
internal_value=0 -0.678948 0.352492 0.162268 -0.24485 -0.0817562 -1.17285 0.676815 0.747596 -0.438745 0.334959 0.124123 -0.915506 -0.0538977 0.473016 -0.70601 0.481965 -0.171174 -0.730818 0.921653 0.12493 1.0002 -0.573196 0.173601 0.528934 -1.44224 0.436145 -0.493562 -0.297583 0.326401 -0.461737 -1.27381 -1.13344 1.08523 0.227334 0.164032 -0.0807138 0.230347 -0.625267 0.60256 -1.1869 0.222183 0.104169 -1.0427 -0.485993 -0.00066697 -0.176218 0.703624 0.378778 -1.13437 -0.0363789 -0.565104 -1.35664 -0.177804 -1.31402 -1.56416 0.0777269 -0.06871 -0.727939 0.409665 0.0417729 -0.054183 0.258469 -1.07255 0.0030198 0.673129 -1.60483 0.50462
internal_count=3714831 1269534 2445297 1541294 675675 638725 593859 904003 794354 234207 902569 357149 303725 477825 545420 197850 314459 348143 140519 479895 404518 352794 118151 360332 492255 290134 299521 121309 115776 241373 82651 121828 185574 265199 312356 109649 265492 92791 118986 214760 166898 99699 70320 76541 63499 93688 47976 127101 212786 146936 33430 105916 103790 29627 21533 168306 121971 52277 85668 64496 89029 63177 38250 14244 177094 192734 151142 29379
shrinkage=1


Tree=1
num_leaves=69
num_cat=0
split_feature=27 0 12 27 27 0 27 0 27 3 0 0 14 0 3 3 25 0 0 6 13 0 0 0 0 13 15 12 27 13 0 27 12 26 20 26 12 6 27 25 22 25 0 25 27 27 0 3 26 25 3 0 0 15 14 27 25 0 27 20 25 20 5 0 13 0 3 27
split_gain=802365 245850 136933 52442.2 51900 47273.4 41921.2 53908.7 38427.1 22729.3 22064.3 21312 16157.2 11933.7 10637.4 10479.1 9562.4 8305.41 7059.33 6784.71 6569.94 6560.23 6313.27 7435.55 5745.88 5618.72 5448.48 5365.58 4953.12 4818.05 4669.91 4509.31 4175.27 3925.21 4148.32 3661.06 3586.65 3951.17 3223.57 3174.26 3154.61 3039.76 3028.51 3025.02 2988.1 2885 2768.49 2723.15 2676.3 2660.17 2646.3 2558.97 2526.61 2511.05 2458.57 2348.5 2329.29 2261.24 2152.02 2117.33 2551.98 2064.45 1974.82 1945.92 1941.22 1927.2 1926.98 1903.37
threshold=888.05148747750582 4.9081895000000015 403.22022277413697 591.16407643346759 1144.2200479900837 6.3049845000000007 1178.4925437942704 4.6342370000000006 702.50000000000011 -21.036783999174414 4.5559345000000011 4.4944625000000009 412.11013322145885 5.4733575000000014 -23.000010667368688 -14.000048011541008 370.27621760355527 5.1645550000000009 5.2499695000000006 5.0654448003712274 422.4541069012925 6.7356920000000011 7.0906585000000009 4.520934500000001 7.3861310000000007 403.23689778126425 337.74372402737885 459.62592054155283 389.50000000000006 422.4541069012925 7.039956000000001 702.50000000000011 500.64141089620927 417.78648076474593 387.46932877308171 422.17583899600817 502.96485304751218 5.4619473645318504 1113.3481878941009 373.5601421925906 359.82315912348093 373.5601421925906 4.5931365000000008 372.57399755460534 685.13156682801753 1435.0000000000002 4.7423940000000009 -17.040016010776039 447.80287699657623 408.12464979578186 -32.999983990565056 4.8605350000000014 4.4996055000000004 320.04136051435825 369.77909226521393 1649.5000000000002 469.02775837342762 4.3963720000000004 620.01891304148717 392.3919708955645 395.87035297769688 398.2521031552763 3.8719817600065345 6.943169000000001 323.75159538677462 6.3316325000000004 -12.08324800555968 925.19590381759485
decision_type=2 2 2 2 2 2 2 2 2 2 2 2 2 2 2 2 2 2 2 2 2 2 2 2 2 2 2 2 2 2 2 2 2 2 2 2 2 2 2 2 2 2 2 2 2 2 2 2 2 2 2 2 2 2 2 2 2 2 2 2 2 2 2 2 2 2 2 2
left_child=1 8 6 13 11 9 7 16 25 17 29 15 18 40 -8 56 38 50 31 57 64 32 23 39 -7 35 -9 52 -15 33 51 -5 46 47 49 -1 37 -17 53 -16 -3 -25 -27 -29 -20 61 66 -10 -37 -35 -6 -28 55 -2 59 62 -4 -18 -44 60 -21 -41 -11 -46 -12 -43 -13 -56
right_child=2 3 4 12 5 24 14 26 10 27 20 21 -14 28 22 36 19 -19 44 54 -22 -23 -24 41 -26 42 30 43 -30 -31 -32 -33 -34 34 -36 48 -38 -39 -40 45 -42 65 58 -45 63 -47 -48 -49 -50 -51 -52 -53 -54 -55 67 -57 -58 -59 -60 -61 -62 -63 -64 -65 -66 -67 -68 -69
leaf_value=-0.076418508353661263 -0.092454491345985171 -0.058178897738915526 0.017904656091156216 -0.034856380218915232 0.058144136799535895 0.013294067151715119 0.033692686636374175 -0.0072786527279843334 -0.039153165684176698 0.0021858950805049237 -0.051535367305706604 0.019801093709626575 0.012489870664340545 -0.041275853851028298 -0.040230725055716336 -0.028443992826812033 -0.039946629527207726 0.034608848975694238 -0.011725535751526024 -0.038850334553606466 -0.0059296664232980911 0.0025449606718779064 -0.012090871684485765 -0.0094948105209061648 -0.0086593907432644737 -0.062040528298235934 0.00012541602066669301 0.0018857970323203771 -0.017298380922476621 -0.040656495469965387 -0.01048479932633507 -0.011454626465877783 0.03027817356069868 -0.0064662440975888488 -0.060642598650197159 -0.058655546771083381 0.0027808132734874762 -0.0029245132631011642 -0.014997615117415739 0.008446769692739959 -0.037909574085668148 0.020588107710518246 -0.057642503891884814 0.036310062938352199 0.0020768829244363859 0.014136836489235955 0.021723906672424083 -0.068910871675670823 -0.07723898775760657 -0.042969456198122473 0.04778176547285648 0.013374086041553161 0.028950991246111047 -0.053862791016531457 -0.036666533541078995 0.033788270027179657 -0.0092612490209484626 -0.024057791563958569 -0.022604151465701439 -0.033980977650727114 -0.0038589646575795064 -0.0087192699276097008 0.021071629235281039 -0.014017588321839117 -0.029712935295097338 0.0072632652031090518 -0.00027755480549273317 0.00047123569338632337
leaf_count=146098 5878 39769 53082 32983 115909 100710 57051 70300 8659 25749 11917 20483 133692 28372 4232 41069 52186 86185 79758 6870 31203 45897 28487 9958 42331 35459 45332 6540 89489 55145 29060 54789 117091 6446 33692 69326 26562 24057 3861 28408 37149 194539 7413 268675 147024 43073 153563 69132 26923 22160 131737 186106 128263 14952 3866 16566 9266 39261 10736 18666 21590 45671 29949 21531 70669 31548 28671 32047
internal_value=0 -0.645001 0.334867 -0.225127 0.527232 0.665912 0.0437603 -0.14601 -1.10622 0.759551 -0.859572 0.273048 -0.0442412 -0.661392 0.270808 -0.0389594 -0.557032 0.959582 -0.16121 -0.474598 -0.509548 0.404469 0.211222 0.247332 0.135938 -1.36376 0.101467 0.619185 -0.461415 -1.06357 0.168139 -0.404982 0.455209 -1.16215 -0.97504 -1.42858 -0.254048 -0.380361 -1.13953 0.0461921 -0.967802 0.350762 -1.07073 0.709844 -0.0750397 0.076935 0.368358 -1.31198 -1.27709 -0.694912 1.05264 0.215585 0.494754 -1.29511 -0.267647 0.345176 0.277331 -0.662512 -0.738367 -0.41786 -0.246146 -0.042715 0.246834 0.000414237 -0.657249 0.37458 0.161769 -0.0705063
internal_count=3714831 1269534 2445297 664556 1472355 952614 972942 529975 604978 809573 309023 519741 469777 194779 442967 154036 199177 333831 336085 174486 113789 365705 385916 357429 143041 295955 330798 475742 117861 195234 260498 87772 319808 140089 62298 242347 91688 65126 24691 121384 76918 236045 53608 275215 248313 117152 202717 77791 96249 28606 247646 231438 200527 20830 83039 72264 62348 91447 18149 47126 28460 74079 55698 168555 82586 226087 49154 35913
shrinkage=0.05


Tree=2
num_leaves=69
num_cat=0
split_feature=27 0 3 13 27 0 27 0 27 27 27 0 14 0 0 0 13 0 11 24 0 13 0 0 21 26 3 10 27 0 0 4 12 13 27 0 4 13 21 0 0 26 26 27 27 27 27 27 0 14 13 3 26 0 0 19 14 26 20 26 26 27 21 14 14 0 6 24
split_gain=724136 222307 124883 51096.5 50622.9 36368.6 31398.9 27938.2 33018.1 23699.4 21490.2 26819.9 16295.9 16123.5 13049.9 12369 8534.36 7894.39 7699.09 6917.97 6799.92 6240.23 5934.81 5566.71 5046.75 4815 4349.59 4327.03 4232.58 4116.63 3995.97 3942.33 3925.59 3877.22 3847.53 3694.77 3585.1 3417.71 3393.34 3295.18 3212.82 3121.28 3080.74 3061.32 2975.21 2928.59 2803.37 2657.19 2652.69 2498.34 2420.3 2392.1 2163.91 2070.2 2020.6 1997.25 1968.69 1927.44 2396.34 1885.8 1869.47 2458.87 1865.89 1863.3 1839.8 1837.59 1774.63 1739.12
threshold=888.05148747750582 4.8513935000000012 -14.000048011541008 383.15660249183793 591.16407643346759 4.6756590000000005 702.50000000000011 6.2030720000000015 1243.0833504804723 1191.2321427892127 1113.3481878941009 4.5741110000000011 384.54523385143563 4.4996055000000004 5.3982740000000007 6.774007000000001 401.50328145696875 5.1645550000000009 430.07545297213619 355.77459582157513 4.4403015000000012 422.4541069012925 5.302483500000001 6.943169000000001 353.2915733985044 420.01682440497115 -26.048761905118052 468.31453248039469 1109.5000000000002 7.1441135000000004 7.1441135000000004 13.000005926315984 410.59670314357078 449.33515253092855 702.50000000000011 4.4691980000000013 11.05148676621303 449.33515253092855 506.63374058426217 4.9774840000000014 4.5867250000000004 382.81495389650428 406.87819927993479 1175.5000000000002 374.50000000000006 1233.3642197833196 1649.5000000000002 685.13156682801753 4.4403015000000012 448.15081189627625 459.26155818324327 -22.640016003399968 449.27624232382749 4.8790375000000008 7.7456915000000004 353.67456654044662 427.79795399068297 414.13213387086074 382.22587737162883 376.5725182594046 413.82926518752907 748.020384001146 390.78318033077147 425.78023466825198 349.80690548581362 5.1065520000000006 7.3287988794803729 353.50847602333789
decision_type=2 2 2 2 2 2 2 2 2 2 2 2 2 2 2 2 2 2 2 2 2 2 2 2 2 2 2 2 2 2 2 2 2 2 2 2 2 2 2 2 2 2 2 2 2 2 2 2 2 2 2 2 2 2 2 2 2 2 2 2 2 2 2 2 2 2 2 2
left_child=1 6 7 5 14 9 25 8 16 19 11 27 17 36 42 20 40 34 46 -4 31 60 26 28 44 56 -20 38 39 -9 50 45 52 65 -6 51 57 -22 49 67 43 -11 55 59 -16 -12 -10 -19 66 -5 53 -18 -27 -13 -17 -3 -1 -8 -59 -2 61 -15 -43 -38 -64 -14 -21 -7
right_child=2 4 3 10 12 23 13 29 18 41 15 30 33 21 24 54 35 47 22 48 37 -23 -24 -25 -26 32 -28 -29 -30 -31 -32 -33 -34 -35 -36 -37 63 -39 -40 -41 -42 62 -44 -45 -46 -47 -48 -49 -50 -51 -52 -53 -54 -55 -56 -57 -58 58 -60 -61 -62 -63 64 -65 -66 -67 -68 -69
leaf_value=-0.073381221127744131 -0.038539433790203782 -0.064364865695497112 -0.069635103026465403 -0.025099188596415491 -0.04050316907973571 -0.038826574173962687 -0.067516726766545174 0.014129851904531794 0.026479287872261767 -0.042237198007997287 -0.0093858092126301255 0.00037383739961405324 -0.0094316568609046983 -0.05781296619255441 -0.05254300742276459 0.0049136487230693072 0.028606622021727854 -0.014113605911702042 0.053985883977103438 -0.039739557972954503 0.021517353669298259 -0.01008427784541522 0.032707072758653664 -0.010916996599074014 -0.013522835245678246 -0.057768002308800019 0.041746548199524065 -0.001500836106219091 0.013671400731277594 -0.0051577057330913041 -0.0053977670107005979 0.02231126801639426 -0.036172833281343693 0.016266195720528336 -0.016115050105086157 0.030987759336524097 -0.050034228270368603 0.03132045698410986 -0.048882342960438738 0.0059027021492891697 0.017407329932310738 0.01324557128954921 -0.035578278711858237 0.019339471774138514 -0.02683929318013949 0.012143851070267622 0.042828225645662826 -0.0022343751874236437 -0.020878477813334857 -0.0053793981076640041 0.022336260855582872 0.010706148688704856 -0.075028623405861972 0.015349349677544651 -0.014869991707803884 -0.0436810706344141 -0.056219046174018239 -0.03472360915114172 -0.060337172819143407 -0.0034684028630117651 -0.02742362975563787 -0.033907098362551388 -0.018949997801236747 -0.034357800861348146 0.0020488918741549448 0.0051013321063279717 -0.01973633296515646 -0.007062553138155599
leaf_count=142095 4387 30211 12514 43472 27135 4997 40293 85533 96435 4227 22827 30710 26974 16335 15243 43226 30597 71319 155002 63151 177355 33692 77806 47188 68215 76611 136636 39475 144632 40886 23766 66048 17464 77035 40054 155997 61862 178391 10074 111567 59892 24782 27951 14673 43136 51263 36033 138514 44550 25484 92162 47886 23833 92934 18400 19052 18967 13381 28831 30389 40105 31557 13971 27366 41153 112303 13462 31364
internal_value=0 -0.612752 0.318124 0.134541 -0.233574 -0.104117 -1.07457 0.596314 0.661857 -0.423093 0.279876 0.088707 -0.0603701 -0.846186 -0.652825 0.402657 0.423121 -0.220974 0.825394 -0.684782 0.455167 -0.567695 0.899563 0.100374 -0.455189 -1.31478 0.965035 -0.300415 0.151784 0.157831 0.281191 0.268577 -1.16118 0.145304 -0.519303 0.53071 -1.04352 0.528666 -0.435464 0.0328436 0.19239 -0.0072911 -0.97684 0.00372044 -0.67103 0.110199 0.618536 -0.125443 -0.611658 -0.356241 0.324051 0.353707 -1.23728 0.232604 -0.0198498 -1.12733 -1.42721 -1.19381 -1.04438 -0.15788 -0.70782 -0.841239 0.0369983 -0.904537 -0.0654471 0.0457272 -0.724507 -0.228583
internal_count=3714831 1269534 2445297 1473145 697142 557558 572392 972152 845733 217810 915587 358077 493334 293422 203808 557510 343821 277022 501912 133677 495884 121689 369444 339748 126594 278970 291638 118505 292560 126419 239572 140138 117908 216312 67189 234480 171733 355746 79030 147928 109341 84133 77214 49449 58379 74090 132468 209833 121163 68956 215806 78483 100444 123644 61626 49263 161062 82505 42212 34776 87997 47892 79906 89228 55124 139277 76613 36361
shrinkage=0.05


Tree=3
num_leaves=69
num_cat=0
split_feature=27 0 3 13 27 0 27 0 27 27 0 27 0 15 0 0 25 13 0 25 0 13 11 4 11 14 26 0 27 27 11 0 0 11 0 19 27 0 6 6 22 15 0 27 25 15 21 27 3 27 0 26 0 13 0 14 23 20 27 24 27 26 27 0 0 27 27 6
split_gain=653534 200806 113147 51790.4 42021.6 37655.5 32640.5 24487.6 25368.1 22241.5 20747.7 19881.5 21002.3 14665 12249.7 6795.28 6734.78 6646.94 6480.72 6252.2 6216.77 5766 5400.53 5224.45 5220.64 4670.8 4333.56 4246.49 4151.72 4127.86 3865.85 3849.43 3745.39 3593.12 3564.79 3398.25 3290.61 3128.47 3121.04 3043.34 2968.91 3858.69 2754.45 2651.06 2646 2560.33 2509.39 2443.08 2419.44 2401.23 2602.07 2365.36 2308.65 2286.53 2265.12 2221.59 2202.27 2117.48 1981.99 1978.89 1955.13 1933.31 1912.7 1903.44 1839.87 1816.63 1816.25 1804.8
threshold=888.05148747750582 4.9272660000000004 -16.00001600105303 398.41386659402264 512.00000000000011 4.5931365000000008 677.17703903637425 6.0851940000000004 1243.0833504804723 1178.4925437942704 4.5867250000000004 1117.0312015672687 4.5497805000000016 377.05350402312655 6.7356920000000011 7.1975760000000006 371.06125998995174 401.50328145696875 5.6515955000000009 373.5601421925906 5.2887500000000012 421.54433090343338 487.00125671989878 13.000005926315984 325.92791595199816 448.15081189627625 422.48535807440874 4.5559345000000011 685.13156682801753 1084.0386925055484 453.57266690358193 4.9976590000000005 7.039956000000001 498.00150703985992 7.039956000000001 434.2262489450921 1221.4984000958623 4.8976855000000006 3.6719852785618214 4.833998400028781 404.07346526294685 347.78000071738978 4.5803725000000011 1649.5000000000002 373.5601421925906 320.04136051435825 509.78638264809507 673.56854592072921 -27.999989332631305 1175.5000000000002 4.5381170000000006 447.33357539638013 4.8696710000000012 461.96629679747343 4.4691980000000013 323.94388527115115 340.24580449607294 523.77761554015365 591.16407643346759 345.13501605792942 685.13156682801753 415.86199066234565 1093.2907791029859 4.8513935000000012 7.7456915000000004 977.02953308514941 1030.226945039057 5.6169897607674022
decision_type=2 2 2 2 2 2 2 2 2 2 2 2 2 2 2 2 2 2 2 2 2 2 2 2 2 2 2 2 2 2 2 2 2 2 2 2 2 2 2 2 2 2 2 2 2 2 2 2 2 2 2 2 2 2 2 2 2 2 2 2 2 2 2 2 2 2 2 2
left_child=1 6 7 5 18 9 26 8 17 16 24 12 30 20 23 19 45 49 56 37 28 55 43 27 61 47 -1 36 -6 52 46 48 -9 39 53 42 -13 -7 -18 -26 41 59 51 -10 -11 -4 -5 -15 -24 50 -2 -28 -21 63 66 -12 -3 -32 -37 -40 -22 -8 -42 -14 -16 -47 -19 -57
right_child=2 4 3 11 13 15 10 32 22 44 21 14 34 25 64 -17 38 54 -20 29 60 -23 31 -25 33 -27 35 -29 -30 -31 57 -33 -34 -35 -36 58 -38 -39 40 -41 62 -43 -44 -45 -46 65 -48 -49 -50 -51 -52 -53 -54 -55 -56 67 -58 -59 -60 -61 -62 -63 -64 -65 -66 -67 -68 -69
leaf_value=-0.067360540683035958 -0.0071221733281459174 -0.062022577277102302 -0.084292219546142522 -0.017206758957884451 -0.036907570704239313 -0.028198794536290473 -0.078508261118814732 0.015175674583081609 0.031162954963663388 -0.043248843747769737 -0.048570293526799424 -0.0061734284392419864 -0.00015350677744146193 -0.0083837019738007331 0.0059168777394284127 -0.013350602408106763 -0.038641200344402833 0.0064819538031924478 -0.024671753600057994 -0.008773930675027861 -0.012634293584897087 -0.00398296363621702 0.055877680278010655 0.029004678965680264 -0.054663608384764056 0.014870346235939269 -0.056840661064425091 0.023879015668436608 -0.013341192221375637 0.014131599146770233 0.0021609417736538033 0.03630642858111751 -0.0036908027854522319 -0.025899102534522895 -0.0029115020931551163 -0.06723944149608288 0.015783515512461013 -0.0010347892220424551 -0.084479691499295476 -0.041347438563917233 -0.03594747911920225 0.002696683951777181 -0.044628846782232362 0.042925984562151701 0.00063905902759107654 -0.073640657220825592 -0.048814664740698684 0.0042689811343748383 0.043491285999160037 0.022872292814045653 0.013619440286953872 -0.078730550725046117 0.0066473990882428783 0.021850410285125764 0.030873101297296514 -0.0318563155576954 -0.04118666098687581 -0.02308931590265181 -0.0024583937132107649 -0.024229845730656223 -0.0024623008447084566 -0.053774343508942668 -0.014535472624320454 0.015286441226754084 -0.013113075457262547 -0.034449853469254582 0.02477335183681954 -0.015719916752565618
leaf_count=171525 25958 17896 6266 48274 34022 14329 16979 81039 140740 3555 12408 23449 26610 55075 44591 42563 38055 19276 65796 31160 85500 31493 90305 252644 80152 80648 46003 141918 41488 227063 44287 68545 38944 21610 26397 1576 62637 40739 1523 92458 34276 21832 31656 72666 101109 4187 7221 124157 70072 26764 36212 16889 109717 104053 124472 45365 43651 10218 4714 13032 105597 14813 15004 79817 17760 10098 45920 28063
internal_value=0 -0.582115 0.302218 0.146485 -0.196173 -0.0540215 -0.991953 0.59934 0.668956 -0.367971 -0.786875 0.307479 0.120462 -0.071491 0.426947 0.113843 -0.622562 0.432587 -0.711652 0.152167 -0.23627 -0.445678 0.817832 0.481044 -0.963995 0.0975493 -1.25047 0.371286 -0.479199 0.199201 -0.240619 0.924531 0.181032 -0.90249 0.288144 -1.08591 0.196042 -0.162078 -0.534491 -0.950623 -0.428608 -0.211919 -1.13326 0.703371 -0.0170238 -1.15272 -0.426409 0.00761514 1.00932 0.206999 0.0991676 -1.2544 0.0647216 0.331588 0.538359 -0.579959 -0.944918 -0.0514368 -0.37395 -0.610753 -0.140273 -1.33971 -0.588585 0.228511 0.00991277 -0.918806 0.38732 -0.513798
internal_count=3714831 1269534 2445297 1604384 653830 714508 615704 840913 720930 248937 343341 889876 346877 526487 542999 465571 144273 278602 127343 423008 266607 117329 442328 480648 226012 259880 272363 228004 75510 367940 110000 228922 119983 194220 236877 100838 86086 55068 123722 172610 85667 36387 94548 213406 104664 20551 55495 179232 160377 88934 62170 62892 140877 210480 189668 85836 61547 54505 6290 14555 191097 31792 49280 106427 62351 14285 65196 73428
shrinkage=0.05


Tree=4
num_leaves=69
num_cat=0
split_feature=27 0 3 27 0 27 27 0 27 14 14 0 0 0 14 25 0 3 13 13 13 13 27 25 27 0 6 0 6 27 26 0 0 0 27 0 0 27 0 0 26 25 16 12 26 0 3 27 27 20 4 23 25 12 12 25 0 13 20 13 27 23 16 23 27 27 21 27
split_gain=589816 182058 102689 42910.2 41804.7 38408.5 24647.3 30822 24529.8 17421.8 14071.8 14071.2 11869.4 11806.1 10953.9 9367.39 8547.9 8364.47 7815.77 6075.35 5392.77 5341.58 5251.11 4884.72 4740.4 4556.16 4224.2 4107.56 4097.2 3865.57 3847.4 3837.07 3654.46 3631.53 3537.59 3509.99 3335.89 3259.66 3086.24 3671.13 3006.95 3617.46 2941.35 2904.15 2783.2 2501.1 2405.85 2401.17 2355.2 2286.43 2170.82 2170.6 2063.69 1989.67 1882.6 1797.39 1796.03 1777.38 1725.11 1674.05 1662.73 1712.36 1644 1721.17 1724.73 1640.37 1616.23 1600.02
threshold=888.05148747750582 4.8246025000000001 -12.08324800555968 591.16407643346759 4.5320425000000011 1113.3481878941009 1243.0833504804723 5.9144925000000006 702.50000000000011 386.06034107489739 412.11013322145885 6.7356920000000011 4.4791695000000011 5.3427505000000002 407.87259036005986 371.78233199920572 5.1645550000000009 -26.048761905118052 406.73435217330569 451.81600553083155 417.96380619923895 445.45029893203974 1144.2200479900837 372.57399755460534 389.50000000000006 6.943169000000001 4.2712624064006581 4.8696710000000012 5.1761251197857785 702.50000000000011 422.72451391844004 6.8147050000000009 4.4791695000000011 4.8882265000000009 1178.4925437942704 4.8422560000000017 4.7905555000000009 1234.3101839188041 6.6649385000000008 4.4403015000000012 450.18310333982208 445.15089941613058 337.78100829676652 321.8278356617721 406.87819927993479 7.6403045000000009 -21.689984009942226 1089.1087198715011 1178.4925437942704 513.1595805876841 11.05148676621303 340.24580449607294 371.06125998995174 484.44865801875045 321.8278356617721 390.79575702051153 7.1975760000000006 459.26155818324327 402.80210284496212 503.19252615971948 503.50000000000006 361.76412709402899 351.23908609040524 321.83322666141174 416.70414565516995 1649.5000000000002 362.35207631801899 685.13156682801753
decision_type=2 2 2 2 2 2 2 2 2 2 2 2 2 2 2 2 2 2 2 2 2 2 2 2 2 2 2 2 2 2 2 2 2 2 2 2 2 2 2 2 2 2 2 2 2 2 2 2 2 2 2 2 2 2 2 2 2 2 2 2 2 2 2 2 2 2 2 2
left_child=1 8 6 13 5 15 18 17 30 23 16 22 43 44 37 -4 29 27 32 28 -19 54 36 33 66 -9 -16 53 -17 -5 62 34 48 -6 35 -25 -11 -7 39 46 41 60 -18 -10 -3 -13 -20 -30 55 -21 -45 -26 -22 -8 -14 -2 -44 -24 -50 -12 -32 67 -1 -64 -65 -28 -15 -62
right_child=2 3 4 10 9 14 7 25 12 11 59 45 21 24 26 19 42 20 38 49 52 -23 57 31 51 -27 65 -29 47 -31 40 -33 -34 -35 -36 -37 -38 -39 -40 -41 -42 -43 56 50 -46 -47 -48 -49 58 -51 -52 -53 -54 -55 -56 -57 -58 -59 -60 -61 61 -63 63 64 -66 -67 -68 -69
leaf_value=-0.06948907719097637 -0.03232760198625402 -0.053231956746212152 -0.061638283048999147 -0.034451731673716811 -0.034501086520932235 -0.017264290964585111 0.042324298283490894 0.016423681290958132 -0.066943648060865321 0.0034720911552256206 0.0073260782146175457 0.0046809460490562461 -0.049848982693138928 -0.04509211264781314 0.0035627290318616593 -0.035867701136170424 -0.012670005544540475 0.019652941699402057 0.025064005623976784 9.3380923558504322e-05 -0.0096161367764777579 -0.0058081424211432172 0.021353846917231519 -0.011377081827674636 -0.032697661317084438 -0.0036376167766381143 0.018298210341602582 0.034401455334707086 -0.021843020564447022 -0.013451520395084904 -0.061272153611347746 -0.0093874711178049079 0.012771075965004923 -0.0040924060583982114 0.01367662449292139 0.0063253202386222666 0.017757025428351281 0.00036176852802283102 0.0047378231342489795 0.026298392802169959 -0.067372555952822932 -0.013740728579608397 0.00077064864834637146 -0.052116042987617087 -0.033225588835156465 -0.012275652110043899 0.0072095549283415052 0.0084323155073785013 0.023360567483406432 -0.026111005588355964 -0.03982204514379778 -0.012606266241440942 0.03591479983086749 0.053560037303839542 -0.029549113725172327 -0.0047026810097371072 -0.016196396989896254 0.030031414543204307 -0.022362635565441109 0.02034701498742951 -0.040967099635536693 -0.050585507740026653 0.00400759409988164 -0.084943295164908506 -0.058221972561444894 0.035883565069989708 -0.020538090393098604 0.00036449350461339943
leaf_count=84302 7434 47485 16608 35044 13682 43921 69943 83393 17569 53216 111667 65422 13173 22635 50463 69643 68876 72487 29784 33284 2516 23671 140576 37885 15968 42837 60627 73773 37963 58516 25104 42842 103962 34784 107370 107326 176273 65109 25925 206325 25123 7213 182066 65891 27451 32574 51508 7912 10488 11099 79046 85165 216219 90431 86308 28346 17058 101795 2567 31699 7368 35523 1050 6577 75024 16985 9533 3429
internal_value=0 -0.55301 0.287107 -0.218528 0.0990393 -0.164734 0.510404 0.636019 -0.981752 0.218439 -0.061 0.325705 -0.777335 -0.60049 0.098186 -0.517921 -0.166124 0.742627 0.334884 -0.443668 0.629475 -0.543161 0.397316 0.0406872 -0.421951 0.192307 0.296503 0.883357 -0.564491 -0.426358 -1.19745 0.0889629 0.149425 -0.253556 0.135902 0.03413 0.288894 -0.134764 0.42526 0.455047 -1.04618 -0.949917 -0.0752708 -0.954793 -0.918075 -0.0190993 0.275034 -0.332409 -0.0762049 -0.129172 -0.908229 -0.31558 0.707817 0.973203 -0.644753 -0.208873 -0.013652 0.499972 0.287327 0.204108 -1.01808 -0.905676 -1.29146 -1.19116 -1.20753 0.442946 -0.75634 -0.556726
internal_count=3714831 1269534 2445297 713163 1327359 413614 1117938 651599 556371 913745 504926 569856 285658 208237 237105 176509 361560 525369 466339 159901 291222 123152 471860 343889 133301 126230 128075 234147 115518 93560 270713 295423 152797 48466 252581 145211 229489 109030 313542 287617 103760 78637 268000 162506 74936 97996 81292 45875 48835 44383 144937 101133 218735 160374 99481 35780 199124 242371 13055 143366 71424 46320 166953 82651 81601 77612 32168 10797
shrinkage=0.05


Tree=5
num_leaves=69
num_cat=0
split_feature=27 0 3 27 14 27 0 0 27 27 14 27 0 0 0 0 0 14 13 0 15 27 6 12 20 13 26 27 11 0 0 26 6 0 12 27 0 26 27 27 26 3 24 27 27 25 20 27 26 27 24 21 0 25 26 0 14 27 23 13 27 24 26 10 13 0 0 27
split_gain=532536 168858 85969.1 44848.3 37727.6 29947.4 28184.2 21134 17743.5 16560.2 14422.9 13112.5 12645.9 12513.3 11195.8 10178.2 7515.39 7476.03 6779.1 6113.97 6262.74 4975.42 4731.53 4718.29 4459.7 4266.45 3877.62 3813.11 3628.74 3617.02 3527.98 3367.63 3332.22 3262.95 2979.1 2927.87 2882.57 2784.18 2871.19 2653.67 2649.26 2606.63 2550.72 2499.14 2473.45 2462.41 2450.22 2433.25 2410.82 2973.57 2361.53 3864.63 2302.71 2151.01 3520.34 2067.69 2022.54 2005.21 1952.93 1941.85 1923.83 1868.95 2689 1864.61 1861.99 1850.76 1807.68 1802.92
threshold=925.19590381759485 4.7988055000000012 -16.00001600105303 620.01891304148717 411.27948046507601 702.50000000000011 4.567851000000001 6.0407795000000011 1243.0833504804723 1178.4925437942704 413.0096968484097 1117.0312015672687 5.3842375000000002 4.5931365000000008 4.4500055000000005 6.5972835000000005 5.1174415000000009 321.76125911536474 445.45029893203974 6.8548885000000013 335.8516827158677 464.50000000000006 4.2900035205669447 442.02060187600233 525.77926864130916 404.06129666671683 406.39296248432044 731.6993600115228 487.00125671989878 5.039895500000001 4.5559345000000011 420.01682440497115 4.1800006400421221 7.1975760000000006 410.59670314357078 685.13156682801753 6.8960995000000009 413.0556475758238 1035.0107847600373 1649.5000000000002 413.44240040905362 -29.319983979165666 498.03552371458221 942.21140481944292 1089.1087198715011 390.79575702051153 383.49592235098117 748.020384001146 413.82926518752907 748.020384001146 357.43320445506191 403.91474361266791 4.8882265000000009 512.40085437029745 483.3563556438458 4.8696710000000012 520.64075680863959 1093.2907791029859 324.10965258642568 503.19252615971948 1109.5000000000002 321.13107556722264 379.15762526006114 560.80339922542942 451.81600553083155 7.543371500000001 7.3180470000000009 1435.0000000000002
decision_type=2 2 2 2 2 2 2 2 2 2 2 2 2 2 2 2 2 2 2 2 2 2 2 2 2 2 2 2 2 2 2 2 2 2 2 2 2 2 2 2 2 2 2 2 2 2 2 2 2 2 2 2 2 2 2 2 2 2 2 2 2 2 2 2 2 2 2 2
left_child=1 5 7 12 6 31 9 8 25 17 16 13 26 24 28 22 27 43 48 20 52 -14 30 39 37 61 -3 -5 40 41 56 -1 -19 -9 -33 -18 -15 38 -6 -10 47 -25 64 -4 55 -24 -42 -7 49 -16 -34 -52 60 -27 -55 -22 -13 -53 -49 -12 -8 -2 -63 -26 -39 -17 -37 -11
right_child=2 3 4 10 11 14 19 33 23 67 59 15 21 36 18 65 35 32 -20 -21 44 -23 45 29 63 53 -28 -29 -30 -31 -32 34 50 -35 -36 66 -38 42 -40 -41 46 -43 -44 -45 -46 -47 -48 58 -50 -51 51 57 -54 54 -56 -57 -58 -59 -60 -61 -62 62 -64 -65 -66 -67 -68 -69
leaf_value=-0.062158262369060607 0.046766583984366554 -0.049934198592972434 -0.00043946622874922763 -0.030932649651321281 -0.0049256780101551928 -0.069640313855984487 -0.032119861296322084 0.013254839083723123 0.024561769410815306 -0.0052961196212058179 0.0075997563215908018 0.00097926577102936166 -0.029022746452157185 0.016408932827534899 -0.054260716733907192 0.0078313711661764391 -0.01168757897450623 -0.033194279582636488 -0.0041398469729658043 -0.0086017463021175449 -0.0065370886052929416 -0.010157372065613858 0.0076972856868997436 0.04949184673629474 -0.039929551410623848 0.025940303455254915 -0.029023203292917341 -0.010627130950696173 -0.023848146244023288 0.031754063088545448 0.021905709028317726 -0.054111042219126597 -0.048654872862378046 -0.005432033854167225 -0.031172872107322631 0.0010972574250790255 -0.0011409753618452226 -0.0069613131814070016 -0.044297482509285759 0.040080594143576183 -0.029167132905834989 0.038631347937350416 -0.036974696796170096 -0.061273714562843765 0.014383431442235438 0.028104884642601819 -0.046395044898203404 0.0036934211652058999 -0.023149426553911945 -0.030035689551838662 0.0023428618919293987 -0.032820099313494597 0.00078460597241895478 -0.074949716148644902 0.018785422873078869 0.0092323472115935275 0.018359746164571474 -0.0086934903309507962 -0.049685734404660606 0.020264225406049743 -0.0014619033859004237 -0.01476486277707066 0.013173672972657452 0.00469576218797132 0.011566535728928818 -0.0093711439940666278 -0.017331187507277697 0.0082913911554234245
leaf_count=150599 3561 57758 1866 39960 12312 17120 11696 92815 92588 72334 128870 43732 61293 161910 17977 45652 72544 41373 31552 60958 27959 81342 15742 106719 13378 173823 36004 54888 21306 85471 111378 95527 4863 31213 16630 204973 27344 21886 7425 39237 32161 114706 3959 17880 222150 243912 57707 1775 61535 42959 25680 21331 55857 1390 3584 81005 27124 14454 48155 39570 9103 9817 70107 2835 35637 23778 14231 36851
internal_value=0 -0.490664 0.292163 -0.188066 0.149816 -0.893158 -0.0186809 0.551545 0.618868 -0.300016 -0.0327089 0.298752 -0.552825 0.127555 -0.69364 0.394737 -0.139115 -0.544873 -0.496161 0.123346 0.167505 -0.36529 0.450662 0.741883 -0.163613 0.413095 -0.838101 -0.383649 -0.864297 0.809858 0.327132 -1.14544 -0.441153 0.171034 -1.01421 -0.0596128 0.27746 -0.0680118 -0.394794 0.583625 -0.916882 0.877319 0.0368766 -1.11055 0.227135 0.537356 -0.804605 -1.06735 -0.602648 -0.743665 -0.302206 -0.24911 -0.0900534 0.500251 -0.147998 0.103713 0.152665 -0.461528 -0.955743 0.211504 -0.374085 0.226426 0.194828 -0.642469 0.0903269 0.0387853 -0.00197852 -0.0141953
internal_count=3714831 1386436 2328395 791433 1503364 595003 705360 825031 701003 236632 555036 798004 236397 286686 332247 511318 386596 127447 154023 468728 407770 142635 441888 438721 97432 262282 93762 94848 178224 306896 182234 262756 107701 124028 112157 291748 189254 81219 19737 131825 156918 221425 61482 19746 331114 259654 89868 67050 122471 60936 66328 61465 76656 178797 4974 108964 70856 35785 49930 168440 20799 83485 79924 16213 57523 69430 219204 109185
shrinkage=0.05


Tree=6
num_leaves=69
num_cat=0
split_feature=27 0 11 27 0 27 27 27 0 0 3 14 0 0 0 3 26 27 3 3 0 12 13 14 0 0 0 26 0 25 21 12 27 14 14 10 0 5 0 12 27 0 0 8 26 25 27 24 0 23 13 27 26 13 6 26 13 26 27 27 20 0 15 15 6 25 0 3
split_gain=481681 149236 85950 33292.8 32222.5 30770.4 25421.9 24259.9 27087.9 17620.1 13755.3 10882.9 9770.46 9011.75 8367.11 7190.32 7127.66 5897.44 5334.63 4942.76 4715.08 4549.79 4453.61 4291.4 4152.4 4148.4 3969.37 3493.24 3447.94 3396.25 3189.31 3715.68 3128.82 3055.88 3053.21 2999.71 2883 2839.67 2625.4 2552.53 2236.4 2080.26 2046.4 2036.85 2011.37 2574.96 1967.75 1957.41 1935.31 1870.15 1785.79 1780.94 1766.68 1739.04 2343.75 1737.99 1684.81 1644.06 1636.17 2053.72 1594.95 1591.98 1729.49 1583.7 1576.32 1730.04 1563.69 1557.47
threshold=888.05148747750582 4.9573620000000007 430.07545297213619 1089.1087198715011 4.6482605000000001 512.00000000000011 677.17703903637425 1221.4984000958623 6.0851940000000004 4.599809500000001 -20.999993469642131 377.24832989326643 4.4691980000000013 6.6649385000000008 4.4500055000000005 -19.000016009434933 370.84261763306648 1248.5000000000002 -10.021800022409854 -18.000080030410881 5.6515955000000009 321.8278356617721 422.4541069012925 346.6558994855323 5.302483500000001 6.5661495000000007 4.9573620000000007 422.48535807440874 7.3180470000000009 373.5601421925906 489.0793167746088 346.21249524603689 702.50000000000011 371.39472429220979 448.15081189627625 504.29941562084269 4.5741110000000011 6.5825118406116081 5.8338505000000014 505.48358674393887 1649.5000000000002 6.8147050000000009 4.4134960000000012 23.00001600943494 450.18310333982208 445.15089941613058 1109.5000000000002 498.03552371458221 7.7456915000000004 340.24580449607294 403.23689778126425 1649.5000000000002 444.30478480261212 499.50301649860631 5.4128006400890607 390.70365330405417 421.54433090343338 415.5098302400242 977.02953308514941 1056.1332307952982 351.72186214927558 4.7124580000000007 428.42288681798391 333.0211505115264 4.6043987195603657 386.87066040703547 4.7048335000000003 -35.999983990565056
decision_type=2 2 2 2 2 2 2 2 2 2 2 2 2 2 2 2 2 2 2 2 2 2 2 2 2 2 2 2 2 2 2 2 2 2 2 2 2 2 2 2 2 2 2 2 2 2 2 2 2 2 2 2 2 2 2 2 2 2 2 2 2 2 2 2 2 2 2 2
left_child=1 6 3 4 16 20 27 14 15 21 38 24 17 23 19 26 58 30 -18 -4 49 57 43 46 32 39 67 61 -10 -17 31 55 -7 -6 -13 37 44 56 40 66 -5 -35 -20 -11 45 -29 -14 53 -15 -3 -38 -19 -33 54 -21 -12 -23 -8 -2 -60 -22 -1 -63 -26 -25 -66 -16 -9
right_child=2 5 7 10 33 11 9 8 28 22 12 34 13 48 25 29 18 51 42 47 60 35 -24 64 63 -27 -28 36 -30 -31 -32 52 -34 41 -36 -37 50 -39 -40 -41 -42 -43 -44 -45 -46 -47 -48 -49 -50 -51 -52 -53 -54 -55 -56 -57 -58 -59 59 -61 -62 62 -64 -65 65 -67 -68 -69
leaf_value=-0.060544555624096164 -0.07293539256752278 -0.054530998245165434 0.017716893181664705 0.023957717984749535 -0.0019718709754258132 -0.030012885414155602 -0.072208306750993628 0.048635147403042867 0.013000952428549551 -0.040954548219067827 -0.053757498992634489 0.0012927723546752603 -0.018347005595793955 -0.00018031307192083556 0.008401966061362327 -0.012535896585399844 -0.0063743169097556333 0.0014976074687602582 -0.032431929313620232 -0.018724022230502423 -0.027522337176666724 -0.04884123175319622 -0.0017580360214570262 0.012404042921010272 -0.011831187425932761 0.0049513984699320873 0.030360532726602957 -0.051341350934206678 -0.0055584232281927137 0.028375368663872982 -0.04048520909470954 -0.0061109177689173677 -0.0091884465769744954 0.011130923538680865 0.013266131544492653 -0.020860197155541819 -0.039831825873638184 -0.031380009701816348 0.005914481669149407 0.025261373585414745 0.041404741165586789 -0.0051385202912006068 -0.018233644074551771 -0.020249452029283785 -0.067764787857724593 -0.014602201091166417 0.0060063609369551711 -0.024850729839595562 -0.018181570693659079 -0.034833557718042148 -0.010268688955908496 0.016251692268955235 0.017595552976561974 0.007636015619487381 0.0042255793496304983 -0.019111444764640287 -0.036500138656382818 -0.047433007410444067 -0.030594491924728569 -0.081097907587465268 -0.011683302364935153 -0.052766306371885813 -0.018781496284313901 -0.0024139750950860225 0.0054979080058737946 0.020914268747384456 0.019115503790230304 0.039515527342120986
leaf_count=130201 6851 17006 40981 91815 134465 36360 14381 74586 93744 14122 4575 164448 9459 56855 46840 5173 46024 76740 63617 22298 38898 87485 31897 157392 68198 51278 92004 44850 34134 257927 8967 45030 35811 121327 78743 20936 30834 55374 16149 141711 22974 23440 42256 74960 16076 5341 67344 9400 20251 41470 6128 27890 9520 34890 22197 17384 40500 12564 8888 2605 26898 42626 4109 129318 20468 164747 124993 126108
internal_value=0 -0.499752 0.259457 0.0786615 -0.139957 -0.158176 -0.843901 0.453872 0.575918 -0.665075 0.198853 -0.0499998 0.142208 0.216021 0.285163 0.671396 -0.482866 -0.0505703 -0.411749 0.0670694 -0.60462 -0.826857 -0.355836 0.273786 -0.188329 0.362736 0.779241 -1.06872 0.160932 0.551416 -0.245441 -0.179296 -0.393611 0.0691033 0.103397 -0.775902 -0.92248 -0.816853 0.495887 0.405861 0.549 0.169926 -0.535311 -0.470647 -1.04732 -0.948655 0.0601279 -0.0655162 -0.0981751 -0.811256 -0.698636 0.108618 -0.0394563 -0.0144102 -0.145484 -0.526639 -0.898727 -1.21316 -1.0717 -0.840918 -0.420959 -1.15403 -0.995587 -0.113316 0.32168 0.384217 0.323908 0.8581
internal_count=3714831 1269534 2445297 1267033 449473 637150 632384 1178264 683676 352219 817560 512878 686622 496516 494588 555798 170241 190106 151897 129766 124272 231240 120979 419410 269687 364822 292698 280165 127878 263100 85476 76509 72171 279232 243191 204295 103229 183359 130938 313544 114789 144767 105873 89082 66267 50191 76803 88785 77106 58476 36962 104630 54550 79385 44495 21959 127985 26945 18344 11493 65796 176936 46735 197516 342607 185215 171833 200694
shrinkage=0.05


Tree=7
num_leaves=69
num_cat=0
split_feature=27 0 12 27 0 27 27 27 0 0 3 15 0 0 0 26 3 27 3 13 0 3 0 14 0 12 0 25 14 13 0 11 20 6 15 0 27 12 0 0 25 27 14 12 27 6 26 0 26 26 0 25 27 26 27 26 20 20 25 0 25 20 22 14 27 26 27 27
split_gain=434718 134758 77746.5 30649.1 29121.1 28445.5 22143.8 21325.7 24570.1 14954.7 13333.6 10209.4 8975.16 8566.91 7523.37 7215.38 6529.52 5406.08 5254.75 4622.34 4541.92 3919.54 3849.78 3747.32 3678.16 3596.28 3567.44 3443.74 3223.56 3133.34 3081.52 3045.1 3045.18 2577.13 2570.66 2561.54 2549.78 2525.56 2447.82 2435.7 2218.21 2208.81 2137.44 2046.62 1935.6 1932.83 1905.11 1861.38 1808.24 1791.33 1786.52 1758.46 1922.48 1737.59 1695.21 1693.19 1679.2 1637.63 1622.83 1608.36 1583.09 2339.27 2072.24 2052.95 1573.95 1679.34 2334.19 1557.71
threshold=888.05148747750582 4.937158000000001 432.92218743442959 1089.1087198715011 4.6972485000000006 512.00000000000011 677.17703903637425 1221.4984000958623 5.9746475000000006 4.5440960000000006 -21.999986666254696 373.34925001042569 4.4892195000000008 6.5972835000000005 4.4006620000000014 370.84261763306648 -22.000016009434933 1248.5000000000002 -11.000000016763805 422.4541069012925 5.5844010000000006 -18.000080030410881 5.302483500000001 346.6558994855323 7.1441135000000004 321.8278356617721 6.8147050000000009 373.5601421925906 446.92105075437945 404.06129666671683 4.8605350000000014 345.43889554767048 505.69132181176997 4.6787257574407333 321.28167490628647 7.1975760000000006 702.50000000000011 505.48358674393887 4.4134960000000012 5.6690125000000009 447.71659464631546 1649.5000000000002 323.94388527115115 425.3611203303073 673.56854592072921 5.5651984003171462 420.01682440497115 7.6403045000000009 455.2772069647221 384.17068240806839 4.6618545000000013 383.43275791664968 748.020384001146 448.25735089195263 1109.5000000000002 406.39296248432044 525.77926864130916 351.72186214927558 406.46756214306862 4.6550705000000017 390.03764456377479 424.65362145202084 417.15249491844605 411.27948046507601 1435.0000000000002 441.69945744256671 1360.251903479905 977.02953308514941
decision_type=2 2 2 2 2 2 2 2 2 2 2 2 2 2 2 2 2 2 2 2 2 2 2 2 2 2 2 2 2 2 2 2 2 2 2 2 2 2 2 2 2 2 2 2 2 2 2 2 2 2 2 2 2 2 2 2 2 2 2 2 2 2 2 2 2 2 2 2
left_child=1 6 3 4 15 20 29 14 16 25 39 22 17 23 21 67 30 31 -17 42 55 -4 36 54 -10 -8 37 -18 44 46 -9 -12 60 43 -6 -36 -7 50 -20 41 59 -5 -11 -27 -13 -44 -1 -15 -42 -19 -16 52 -35 -48 -14 -3 -23 -22 -53 -31 -33 -62 -63 -64 65 -51 -67 -2
right_child=2 5 7 10 34 11 9 8 24 19 12 28 13 47 26 18 27 49 38 -21 57 56 -24 -25 -26 33 -28 -29 -30 40 -32 32 -34 51 35 -37 -38 -39 -40 -41 48 -43 45 -45 -46 -47 53 -49 -50 64 -52 58 -54 -55 -56 -57 -58 -59 -60 -61 61 62 63 -65 -66 66 -68 -69
leaf_value=-0.057264577428660479 -0.068075089364625377 -0.046377287258673877 0.016345463649774763 0.023611023056376138 -0.0097791999187798861 -0.028882063155160367 -0.058554743051959471 0.042600683972581162 0.01418385525765746 -0.042401703543672981 -0.025777566719122076 -0.0071258020927750867 -0.016794551422096033 0.00051747098001097961 0.0065305554622480388 -0.0040387163887450027 -0.011195774253238129 -0.021705730231459251 -0.030333235331129957 -0.004046808164738235 -0.026942344624328252 -0.0011863333312249573 -0.0059908230383043555 0.015661320150240885 -0.0033570207751913795 -0.05054809018419814 0.0026539974857408 0.028134655127667343 0.012382293082789533 -0.050110450042092053 0.030564028098049392 -0.018048695671070755 -0.039978860450789952 -0.067240979388895561 0.0073169320441417085 -0.010308060590727476 -0.010025467804908423 0.023182963694788734 -0.015870917514533196 0.0074429161403591617 0.011124975460878981 0.041121379074197224 -0.027764068638354733 -0.034252198067801928 0.0038390039077492717 -0.012530776661990567 -0.044001103176384608 -0.016119631653255122 -0.039962047080317913 0.0057197214253205623 0.017600493162578761 -0.01524206238940763 -0.035134898677174793 -0.059592070535669596 0.00611897988632911 -0.028272902953820303 -0.021231940396385665 -0.011426396296241911 -0.032896235031654161 -0.028136191498265878 0.012137939876869491 -0.050490362800343969 -0.018595901981589807 0.013442719433247742 0.01273324626053552 -0.00073383361646820421 -0.047230756605186601 -0.039348077359874653
leaf_count=133164 7570 35330 31849 86342 30517 36843 24252 156032 97558 14660 25088 57843 9201 59329 50209 45741 5671 5775 66660 36749 41991 59193 178330 338851 43079 52641 39261 294659 81634 28838 80720 12426 5808 6841 215722 22791 34938 158882 52180 18070 3641 22770 52881 30431 132319 34373 70276 23457 3302 38760 133118 16463 14684 23999 65741 20384 12688 28604 62398 11725 26195 2745 11118 9085 55329 8601 3935 12571
internal_value=0 -0.474766 0.246484 0.0766816 -0.132233 -0.155792 -0.807546 0.433728 0.54831 -0.639341 0.191083 -0.0527355 0.137067 0.209722 0.273679 -0.437962 0.645744 -0.0390395 -0.368814 -0.385017 -0.581613 0.0348748 -0.198537 0.268472 0.17621 -0.809118 0.338613 0.547837 0.0814296 -1.01945 0.76994 -0.218146 -0.107391 -0.761262 0.0776839 0.112652 -0.394093 0.371369 -0.479671 0.488992 -0.785787 0.545312 -0.494656 -0.891583 0.0100701 -0.435272 -1.06825 -0.08392 -0.263291 0.108292 0.291379 -0.653408 -0.906821 -0.95941 0.0661027 -0.795087 -0.0945066 -0.413124 -0.584227 -0.875197 -0.0420795 0.038535 -0.194544 -0.0837249 0.137679 0.0114767 -0.306658 -1.00295
internal_count=3714831 1269534 2445297 1282378 453752 648216 621318 1162919 677719 346373 828626 521907 701444 496579 485200 184722 537082 204865 164581 138663 126309 103730 250111 413793 140637 207710 381470 300330 271796 274945 236752 92465 67377 183458 269030 238513 71781 342209 118840 127182 47506 109112 101914 83072 190162 87254 227439 82786 6943 112400 183327 100386 21525 94275 74942 55714 71881 70595 78861 40563 61569 49143 22948 20203 106625 51296 12536 20141
shrinkage=0.05


Tree=8
num_leaves=69
num_cat=0
split_feature=27 0 3 27 0 27 27 0 27 14 14 0 0 0 11 0 3 13 0 0 25 13 27 27 14 25 12 6 26 0 27 21 13 13 10 13 0 0 0 0 13 22 14 26 27 26 27 20 27 27 27 27 6 25 27 22 27 26 3 26 0 25 20 6 26 26 26 22
split_gain=392590 125893 65612.9 34063.3 24517.7 21698.8 19512.2 18852.3 19279.4 11171.3 10823.1 9866.62 8322.22 8220.07 7085.72 5997.19 5861.65 5302.91 5027.92 4967.6 4452.86 4435.2 4353.01 3727.48 3535.49 3433.78 3391.04 3138.55 3116.57 3065.76 2952.48 2876.58 2854.82 2648.65 2637.85 2614.08 2550.24 2508.28 2505.74 2633.28 2337 2158.72 2097.39 2005.32 2613.78 1975.19 2344.47 2039.66 1965.08 1861.13 1857.49 1841.45 1730.7 1717.88 1679.15 1741.02 1675.04 2412.18 1697.5 1629.95 1589.49 1633.21 1553.12 1535.39 1533.29 1732.75 1503.9 1469.83
threshold=925.19590381759485 4.7905555000000009 -11.000000016763805 620.01891304148717 4.4944625000000009 702.50000000000011 1215.5000000000002 6.4114220000000008 1243.0833504804723 384.54523385143563 386.06034107489739 5.2887500000000012 4.4403015000000012 6.9933280000000009 361.37695291573868 4.5151780000000015 -27.478239992795583 448.03355835876386 5.0719570000000003 5.1524245000000013 373.5601421925906 419.7394130821653 374.50000000000006 1144.2200479900837 401.85785952765661 370.27621760355527 492.15949829296545 4.7939936003833417 406.39296248432044 4.8696710000000012 731.6993600115228 530.75698137839765 459.26155818324327 401.50328145696875 504.29941562084269 501.12761821893514 4.7988055000000012 7.6403045000000009 6.774007000000001 4.8246025000000001 402.38331472747842 336.14515047503875 411.27948046507601 413.82926518752907 748.020384001146 413.44240040905362 740.10235181645794 322.71505649318379 748.020384001146 1249.5000000000002 1008.0207544228957 685.13156682801753 4.2900035205669447 371.06125998995174 555.47894424029494 422.50950964562543 1113.3481878941009 371.84770596491677 -25.079999984577295 426.26090817419021 6.0851940000000004 389.20511825239299 502.32183699885974 5.1088121602772771 423.84999159523335 447.80287699657623 425.90697326688024 321.58902630333841
decision_type=2 2 2 2 2 2 2 2 2 2 2 2 2 2 2 2 2 2 2 2 2 2 2 2 2 2 2 2 2 2 2 2 2 2 2 2 2 2 2 2 2 2 2 2 2 2 2 2 2 2 2 2 2 2 2 2 2 2 2 2 2 2 2 2 2 2 2 2
left_child=1 5 7 11 6 33 14 8 15 19 20 28 34 23 25 26 18 43 -10 30 29 -18 -13 36 -8 -4 31 35 -3 -6 -5 56 -11 64 45 62 63 -9 39 49 -17 -24 -29 44 -14 48 66 -48 -7 -22 -28 -21 -26 -23 -35 59 57 -2 -58 -56 61 -25 -16 -12 -1 -66 -47 -50
right_child=2 3 4 9 10 12 24 37 16 32 13 22 17 -15 27 40 21 -19 -20 51 38 53 41 60 52 -27 50 42 -30 -31 -32 -33 -34 54 -36 -37 -38 -39 -40 -41 -42 -43 -44 -45 -46 46 47 -49 67 -51 -52 -53 -54 -55 55 -57 58 -59 -60 -61 -62 -63 -64 -65 65 -67 -68 -69
leaf_value=-0.05506401234637906 -0.037507850325082165 -0.045725991214754305 -0.05527300941998245 -0.02878218804278267 -0.033391863518782837 -0.060870385862758405 -0.0028411892310010269 0.0062977283711463834 0.039716928332372177 0.0027077553210185148 -0.0050212006800399514 -0.035288261911617928 -0.04853317110821901 -0.0033820477850611702 -0.020074248686595443 0.012830597308613743 0.015721877665588951 -0.0031896074018748807 0.02337428810454751 -0.011643183204439717 -0.0089404605626717312 -0.0089356204316596837 -0.026563158614362998 0.0075588037479708773 0.0043872689521490694 -0.025577734414244775 0.0025880589107699081 -0.013117190388499962 -0.025732423760508178 -0.0047558685666624356 -0.0098478766013171751 -0.040372926345815865 0.014030096451449009 -0.057076622857347284 -0.018949716377975118 -0.00088502045616184455 0.013898135555409774 -0.01123988887970423 -0.0076916410739260241 0.0092295540095070454 0.022754461068981009 -0.0097992649609669712 0.0054012607032622633 -0.020020877446387059 -0.026049344775438334 -0.0031935411858851764 0.016458319266425516 -0.03974088490811406 0.0043778490900176943 0.0089698027950030138 0.023044901877180241 -0.0011970695964713361 0.019154486687969006 0.028659405191339679 -0.034449961306791212 -0.050192543047021247 0.02593638439765546 0.0010577984580532557 0.0047509815415638576 -0.0064473708135159031 0.011518120474920767 0.023234287173926935 -0.04323825200872107 0.012775008665917279 -0.041252411951175766 -0.057484319920556082 -0.034987810774133127 -0.04279529318628307
leaf_count=133419 4399 50291 11796 37027 13245 17035 56313 102872 167894 174685 34578 25866 18305 65583 37297 86646 95349 30992 65419 57032 41867 3071 23438 18347 32606 55828 15275 27178 31850 31773 46400 3819 81727 10129 17038 15570 155250 25426 40186 162966 188334 106432 34952 63449 44061 8625 1650 72582 1709 22192 40619 162144 50719 271681 20204 11885 13341 51764 32491 7002 46980 177124 8985 18660 53821 23708 6544 47386
internal_value=0 -0.421289 0.250853 -0.162103 0.0823774 -0.771632 -0.14758 0.418116 0.462728 -0.0272335 0.17429 -0.479045 -0.601118 0.26314 -0.354775 0.302683 0.578551 -0.434351 0.702696 -0.157364 0.0273023 0.500287 -0.331125 0.31125 0.136718 -0.615167 0.149856 -0.21274 -0.759482 -0.263642 -0.36504 0.044598 0.126335 -0.9875 -0.752647 -0.372205 0.213196 0.0564353 0.0763223 0.117067 0.392553 -0.256501 -0.0539729 -0.525623 -0.652987 -0.793573 -0.696607 -0.769821 -0.924647 -0.0547011 0.349104 -0.0783096 0.26753 0.56478 -0.778539 -0.684458 0.0765111 -0.039241 0.218376 -0.544894 0.395564 0.435264 -0.491445 0.0243102 -1.03625 -0.924334 -0.338259 -0.823044
internal_count=3714831 1386436 2328395 796892 1159995 589544 331244 1168400 1040102 559015 828751 237877 329376 516522 191606 436688 603414 156807 233313 302603 312229 370101 155736 450939 139638 67624 161708 123982 82141 45018 83427 105814 256412 260168 172569 61852 208488 128298 267211 227025 274980 129870 62130 125815 62366 155531 89401 74232 66130 64059 55894 219176 83325 274752 49220 39091 101995 56163 45832 27206 242451 195471 46282 53238 210948 77529 15169 49095
shrinkage=0.05


Tree=9
num_leaves=69
num_cat=0
split_feature=27 0 3 0 27 27 27 27 0 0 14 0 11 14 15 14 25 0 27 14 13 14 6 0 6 0 27 0 6 14 14 3 25 0 22 0 25 0 0 0 27 26 27 3 0 20 0 0 27 25 23 23 27 27 0 27 13 26 20 15 27 21 20 0 0 26 25 20
split_gain=355197 109688 65928.3 27799.6 24731.7 21632.7 18106.3 16665.3 20273.2 13823.6 9583.63 8364.46 8295.37 7816.96 6635.6 6512.91 6361.81 4061.77 4030.98 3702.1 3665.49 3642.92 3546.03 3432.87 3409.03 3314.91 3202.67 3120.74 3058.74 2978.49 2933.1 2824.65 2604.08 2572.69 2441.4 2360.96 2345.9 2329.67 2322.24 2305.14 2162.89 2150.24 2088.48 1967.6 1939.26 1913.98 1894.59 1883.95 1864.51 1841.84 2698.27 1807.19 1797.66 1755.98 1745.16 1716.99 1704.81 1688.56 2725.5 1686.38 1656.68 1629.35 2297.39 1592.8 1536.95 1497.41 1496.05 2267.52
threshold=881.01801582784958 4.9878930000000006 -11.000000016763805 4.567851000000001 1113.3481878941009 512.00000000000011 677.17703903637425 1170.6943838265213 5.8745515000000017 4.6133605000000006 381.61003022105302 6.6290125000000009 487.00125671989878 357.19798124279311 373.34925001042569 401.08481601607463 372.57399755460534 4.4006620000000014 1649.5000000000002 449.35594783560492 436.05116060082452 445.67270237867893 5.4619473645318504 6.8548885000000013 4.8139881608635111 5.7386090000000012 1113.3481878941009 4.6550705000000017 4.002779300639566 446.92105075437945 433.80544161619247 -21.999986666254696 373.5601421925906 6.5015140000000011 347.87207166212153 7.3180470000000009 469.02775837342762 5.0182165000000012 5.4136560000000005 4.9081895000000015 671.09876830616031 406.39296248432044 1248.5000000000002 -25.079999984577295 4.6269235000000011 525.77926864130916 7.8688480000000007 4.7988055000000012 1428.0024966001326 509.36318428566301 455.24357633564853 340.24580449607294 389.50000000000006 1089.1087198715011 4.937158000000001 673.56854592072921 323.75159538677462 416.43526495303416 388.17339659685928 320.04136051435825 702.50000000000011 393.60738329114457 359.9814238282616 4.3541405000000006 4.5931365000000008 420.45574989374092 388.6155452823678 365.88654551290921
decision_type=2 2 2 2 2 2 2 2 2 2 2 2 2 2 2 2 2 2 2 2 2 2 2 2 2 2 2 2 2 2 2 2 2 2 2 2 2 2 2 2 2 2 2 2 2 2 2 2 2 2 2 2 2 2 2 2 2 2 2 2 2 2 2 2 2 2 2 2
left_child=1 6 7 4 16 25 27 14 12 20 32 26 18 38 44 48 59 36 31 22 24 34 61 -10 57 51 39 40 -17 55 41 -9 37 49 -11 42 -16 -5 60 -12 52 -29 54 47 -2 -21 -13 -14 -6 -19 -51 -3 -1 -24 -34 -15 -26 -8 -59 -4 -7 62 -18 -22 -33 -54 -58 -68
right_child=2 5 3 10 15 13 9 8 23 21 11 46 43 29 17 28 19 33 -20 45 63 -23 53 -25 56 -27 -28 30 -30 -31 -32 64 35 -35 -36 -37 -38 -39 -40 -41 -42 -43 -44 -45 -46 -47 -48 -49 -50 50 -52 -53 65 -55 -56 -57 66 58 -60 -61 -62 -63 -64 -65 -66 -67 67 -69
leaf_value=-0.060707682551370871 -0.01164781374222254 -0.047237002174363704 -0.074394702348463917 -0.024603679364934624 -0.010471759562154598 -0.025394760697963165 -0.053251795707869781 0.024872827837708972 0.012965428323010994 -0.041549610548416785 0.0015686577113492037 0.0030252412293069065 0.041928366625653288 -0.0061579438179306199 0.0070800587977204238 -0.00030868801011710084 -0.037653630921507475 0.01953539659742759 0.031347599300886347 -0.0017502780361709947 -0.034277884983201098 0.0037583366838807291 -0.01591725084024033 -0.0024622981626856869 -0.050435787065695362 -0.017222114365560131 0.018957758604286296 -0.04831462473931622 0.015803149288824023 0.011611956326662034 -0.0093902628070217202 0.0088840225608693129 -0.0069132076369846814 0.0038088079515583972 -0.016214965846369511 -0.012945225901179067 -0.019549563192849475 -0.0015408164720326881 -0.0060498004718427187 0.013888031406501123 -0.069127755216875864 -0.032458295280681657 0.011593017148112124 0.02949224478566035 0.0050032574261882406 -0.026184477382081003 -0.013503988916145513 0.030176193430001958 0.0046369500262448743 -0.065074907115331995 0.0098991584474414206 -0.028268952363502887 -0.050116212692549456 0.011578072200709479 0.0046329630832044697 0.0032293068728385431 -0.042018361675176127 -0.019435728834880706 -0.0489698163252602 -0.039937999364906517 -0.0089342185899311654 -0.033960164003757412 -0.002144310387635085 -0.016409539415696953 0.019308633886309282 -0.040250990133224973 -0.012013081417411621 -0.032790538574617716
leaf_count=23664 33141 17690 4684 16704 73589 33419 45736 118063 100097 10677 53855 83735 96414 72353 64637 43869 7785 226340 91773 40039 21915 21478 35615 56352 12185 60117 251232 45541 89632 76392 8104 66791 45320 32869 87185 20937 9483 31801 128132 128824 12800 40357 73142 138581 37013 10022 21862 52827 28257 1534 5510 43387 90540 6936 117759 149076 20805 12070 22175 14747 28193 54504 10986 28983 75185 67015 18804 43592
internal_value=0 -0.436216 0.219193 0.0597629 -0.150292 -0.133073 -0.727462 0.386448 0.470843 -0.573135 0.164314 0.244466 0.549767 -0.0390858 0.222787 0.0648658 -0.423538 0.280507 0.446753 -0.360117 -0.718384 -0.297739 -0.458332 0.148163 -0.786962 -0.511175 0.305891 -0.91264 0.210168 0.0619787 -0.76305 0.383154 0.0228386 0.338144 -0.379591 0.0629279 0.0734477 -0.189682 -0.197721 0.205129 -0.985111 -0.81731 0.091457 0.675679 -0.0572419 -0.132857 -0.00792796 0.755375 -0.125588 0.375035 -0.128434 -0.675271 -0.957033 -0.228685 0.0284793 0.00323524 -0.659258 -0.939252 -0.771233 -0.964932 -0.357267 -0.591676 -0.337477 -0.48208 0.288097 -0.918408 -0.608067 -0.530594
internal_count=3714831 1242385 2472446 1265836 420665 608759 633626 1206610 796083 345605 845171 539508 639634 487565 410527 235347 185318 340373 351812 165887 226265 119340 115826 156449 175367 121194 433911 288021 133501 297821 94002 260039 305663 266253 97862 257158 74120 48505 189744 182679 194019 85898 236221 287822 70154 50061 105597 149241 101846 233384 7044 61077 181219 42551 163079 221429 95386 79981 34245 19431 61612 73275 18771 50898 141976 157555 83201 62396
shrinkage=0.05


Tree=10
num_leaves=69
num_cat=0
split_feature=27 0 12 27 0 27 27 0 27 0 3 15 0 0 3 0 26 24 3 27 13 13 13 6 0 0 25 0 21 3 0 15 0 22 13 0 15 13 0 27 0 26 21 27 27 27 0 0 13 27 25 6 26 0 13 0 0 26 20 6 6 26 23 25 24 23 26 27
split_gain=320566 98994 61112.1 23319.2 23408.7 19523.6 16776.8 18642.6 16340.9 12475.8 9682.3 7032.25 6798.1 6590.03 6484.96 6460.93 5088.58 3916.21 3852.42 3580.48 3431.61 3335.06 3311.3 3079.37 3034.97 2999.38 2971.22 2817.12 2616.3 2614.54 2572.04 2520.93 2502.22 2419.47 2383.61 2339.2 2257.44 2217.26 2176.29 1955.38 1915.19 1866.75 1823.82 1702.45 1684.71 1674.37 1674.29 1630.32 1628.94 1607.78 1604.37 1577.34 1553.31 1544.16 1541.01 1528.77 1524.27 1513.66 2497.74 1460.21 1455.67 1443.87 1418.52 1408.84 1403.88 3633.36 1395.12 1390.48
threshold=881.01801582784958 4.9878930000000006 430.64786365997662 1089.1087198715011 4.6618545000000013 512.00000000000011 1144.2200479900837 6.1306055000000006 677.17703903637425 4.6133605000000006 -25.99998399056506 373.34925001042569 4.4267815000000006 4.4892195000000008 -19.000016009434933 6.5661495000000007 370.84261763306648 496.46653890767124 -9.0799200057978613 1249.5000000000002 344.27150195106304 438.40790550393382 437.14278450933961 4.8139881608635111 5.3427505000000002 5.6515955000000009 389.20511825239299 4.6482605000000001 492.25442682643762 -12.08324800555968 7.1975760000000006 420.52325215989964 7.4625770000000005 347.87207166212153 363.14651521459149 6.5336835000000013 321.28167490628647 456.6750782979679 5.3982740000000007 671.09876830616031 7.3180470000000009 406.39296248432044 323.33249083620899 1649.5000000000002 1109.5000000000002 685.13156682801753 5.5512265000000012 4.3840055000000016 493.58342033214063 389.50000000000006 389.20511825239299 4.5680062397569925 396.28389543941813 4.4267815000000006 323.75159538677462 7.7456915000000004 4.8790375000000008 416.43526495303416 388.17339659685928 6.4188680001805141 5.5651984003171462 384.17068240806839 340.24580449607294 398.25353539595773 498.03552371458221 447.28666674145012 444.30478480261212 1566.5000000000002
decision_type=2 2 2 2 2 2 2 2 2 2 2 2 2 2 2 2 2 2 2 2 2 2 2 2 2 2 2 2 2 2 2 2 2 2 2 2 2 2 2 2 2 2 2 2 2 2 2 2 2 2 2 2 2 2 2 2 2 2 2 2 2 2 2 2 2 2 2 2
left_child=1 8 3 4 16 25 13 14 27 22 46 38 19 17 24 20 -2 29 -18 28 44 33 23 57 -8 62 -16 39 34 -4 37 41 -9 -11 -12 48 -6 -13 45 49 -38 -29 -20 53 52 -7 67 -44 -15 -1 -22 -52 56 -28 -25 -17 -14 -10 -59 -24 -35 -21 -3 -47 -50 -66 -36 -5
right_child=2 5 6 10 36 11 7 32 9 21 12 30 15 35 26 55 18 -19 42 61 50 -23 59 54 -26 -27 43 31 -30 -31 -32 -33 -34 60 66 -37 40 -39 -40 -41 -42 -43 47 -45 -46 63 -48 -49 64 -51 51 -53 -54 -55 -56 -57 -58 58 -60 -61 -62 -63 -64 -65 65 -67 -68 -69
leaf_value=-0.057743674408914453 -0.044696081254817464 -0.045334774919034038 0.010830670045907773 0.022158187921111155 -0.0096398135468778109 -0.0231071473254848 0.033783287153333501 0.0098981348742638031 -0.050519045818424868 -0.041418438774189152 -0.019158499943513891 0.0027269612828346793 -0.060945312520146636 0.012169883191002514 0.0034358171891980928 -0.00013757055656970029 -0.0065294827162063977 -0.027911701099935422 0.029653969459168008 -0.024998389775088524 0.0049136875395431184 0.0022077998641196936 -0.026184770038054792 -0.047914003978095823 0.021276022330987621 -0.017061743291029788 0.014300339255421988 -0.046137661493695491 -0.039285960146055919 -0.0046985190707388809 -0.011904628919526037 -0.013357044312967645 -0.0061046377253399387 -0.020785592031412822 -0.0047457120365807333 0.0040741223964611602 0.0056867944635212173 0.014140616132586967 -0.0047996871318657383 -0.065843444871530515 -0.010689719520682157 -0.031323361765377859 -0.029502795149981616 0.029544424799735743 0.004900921934355415 -0.018131423681187586 0.0065042197164218484 -0.017087195061233709 0.022441746693504478 -0.043673017220060006 0.010382298419338371 0.017501007184397382 0.0089728429516976547 0.023282674652320368 -0.028875045269672769 -0.015910767810367255 -0.012086290308605224 -0.018358905211973718 -0.046560390466947876 -0.0013974819726303789 -0.0072621958785876149 0.0053076294157402447 -0.027719900568383967 0.00073699435624217068 -0.067206376093840711 0.014209952854491862 0.017508191619379904 0.037378938827091097
leaf_count=23371 18827 16144 56385 57001 32062 35026 262043 107618 45885 10201 27415 173389 2580 117668 21430 66071 55430 11024 1634 4106 49929 24722 43151 12185 59549 65796 67900 45520 7105 52189 23302 10603 31596 52261 37003 45798 234526 56396 159734 12668 19322 39969 55294 69913 80743 18621 12593 50725 108524 155890 132951 187797 3878 162292 83694 20018 4195 12117 22338 6895 32156 91526 39254 21097 1506 15196 8698 20386
internal_value=0 -0.414406 0.208233 0.0567102 -0.121205 -0.126419 0.37136 0.457114 -0.69109 -0.544479 0.158963 -0.0371316 0.120513 0.207039 0.528935 0.175397 -0.401643 0.00964599 -0.344806 -0.050563 0.222258 -0.282852 -0.682466 -0.746944 0.629349 -0.485617 0.428501 -0.867009 -0.206361 0.0673143 0.078463 -0.727193 0.125316 -0.368303 -0.150049 0.288811 0.0572199 0.110568 -0.161904 -0.937005 0.0888017 -0.784241 -0.455096 0.454189 0.0486939 -0.302748 0.468337 -0.47126 0.3279 -0.910155 0.26505 0.291009 -0.325065 0.412667 -0.625903 -0.0761164 -0.613992 -0.891383 -0.73288 -0.455414 -0.312697 0.0801185 -0.657082 -0.162158 0.407294 0.137316 -0.0101842 0.523368
internal_count=3714831 1242385 2472446 1281815 467820 608759 1190631 782341 633626 345605 813995 487565 724015 408290 643127 548162 181910 119598 163083 175853 462073 119340 226265 176219 321592 121194 321535 288021 80221 108574 253087 96092 139214 94618 73116 288692 285910 229785 234478 191929 253848 85489 107653 300105 91396 74744 89980 106019 242894 179261 370677 320748 10653 230192 95879 86089 6775 80340 34455 50046 84417 95632 55398 39718 125226 16702 45701 77387
shrinkage=0.05


Tree=11
num_leaves=69
num_cat=0
split_feature=27 0 3 27 14 0 27 0 0 27 27 27 0 15 0 14 0 27 0 13 6 21 27 16 6 0 12 13 6 24 21 27 0 27 13 0 0 3 26 13 27 6 27 21 25 0 0 21 15 24 27 27 27 0 15 27 26 24 4 27 14 11 25 16 19 0 26 26
split_gain=289627 93769 49488.8 26212.3 22569.8 16700.5 15624.8 12585.7 10414.1 10297.9 9431.39 7712.22 7162.4 6548.51 6481.46 5706.79 5681.44 4759.06 4504.13 4460.5 3701.66 3489.23 3113.3 3032.97 2982.06 2942.02 2907.46 2744.5 2645.42 2540.8 2748.31 2522.66 2510.4 2507.48 2474.14 2297.45 2280.12 2279.23 2240.94 2240.56 1991.4 1922.68 2155.58 1906.51 1880.93 1853.54 1852.08 1806.42 2304.03 1771.31 1746.2 1735.51 1734.63 1732.08 1797.5 1656.34 1649.35 1624.19 1613.88 1585.88 1549.72 1535.33 1495.74 1489.05 1471.72 1444.89 1433.89 1431.47
threshold=925.19590381759485 4.7822895000000001 -16.00001600105303 673.56854592072921 411.27948046507601 4.7048335000000003 702.50000000000011 5.9339580000000014 5.3564050000000005 1178.4925437942704 1288.0000000000002 1117.0312015672687 4.6482605000000001 321.28167490628647 4.4006620000000014 425.78023466825198 6.5015140000000011 464.50000000000006 6.5972835000000005 422.4541069012925 4.6600000001676394 480.46758616050823 512.00000000000011 311.51406825963403 5.3164018135651814 5.0719570000000003 492.15949829296545 396.69194153456368 3.8200088030100825 357.43320445506191 388.24681749832121 1089.1087198715011 4.5803725000000011 942.21140481944292 480.79054186975088 5.1174415000000009 6.8960995000000009 -35.999983990565056 415.15009362806217 377.31048703684127 748.020384001146 5.1761251197857785 591.16407643346759 511.76203713250561 373.5601421925906 7.2563670000000009 4.5440960000000006 395.48779682034348 348.61008648164795 381.78679616909068 1109.5000000000002 1117.0312015672687 838.0909440052535 6.9933280000000009 333.0211505115264 1435.0000000000002 430.18260276167319 330.34255903386537 13.000005926315984 1221.4984000958623 377.24832989326643 483.30254809589491 394.3905147005031 344.44312071363487 375.54758964643923 6.9933280000000009 406.39296248432044 436.06174916697381
decision_type=2 2 2 2 2 2 2 2 2 2 2 2 2 2 2 2 2 2 2 2 2 2 2 2 2 2 2 2 2 2 2 2 2 2 2 2 2 2 2 2 2 2 2 2 2 2 2 2 2 2 2 2 2 2 2 2 2 2 2 2 2 2 2 2 2 2 2 2
left_child=1 6 7 8 5 9 39 10 22 13 26 12 24 33 61 25 20 57 23 38 32 28 66 -7 34 67 46 -12 -15 -30 -31 -32 58 -4 43 37 -9 -29 40 -1 -16 -41 -43 -6 -11 -14 51 56 -49 -42 -33 62 -21 54 -27 -50 -46 -10 59 -13 -24 -8 -2 -19 -40 -17 -3 -5
right_child=2 3 4 15 11 18 14 36 17 44 27 16 45 21 19 65 -18 63 -20 52 -22 -23 60 -25 -26 53 -28 35 29 30 31 50 -34 -35 -36 -37 -38 -39 64 41 49 42 -44 -45 47 -47 -48 48 55 -51 -52 -53 -54 -55 -56 -57 -58 -59 -60 -61 -62 -63 -64 -65 -66 -67 -68 -69
leaf_value=-0.045563015634650747 -0.021756008471325347 -0.043769806760304807 0.0063350281040102973 -0.014972061146008617 -0.014386796095411348 -0.011894164396766674 -0.035749747587171997 0.011433357725668808 -0.055350850521093876 -0.029001723551301092 0.017381325545260416 -0.013836399664194955 0.012305281105742152 -0.023709968388967106 -0.044488826496891842 0.012227129017038081 0.0021504737123517258 -0.012183843617516852 -0.0052766402319860536 -0.016681401230760225 0.021530682278371835 -0.039491001742842369 -0.027073800232917646 0.008985281130922694 0.0078737026753809402 -0.0076670591176491 0.022857780787138827 0.039094448066443716 -0.036811535272096761 0.0083492675826703829 -0.020806600106066442 0.025002907316935569 0.016849379216198515 -0.05216724550708856 -0.0011899190639625113 0.022594758114466089 -0.0021428581504993821 0.029102108369900077 -0.0093352899842420924 -0.041310838763118508 -0.013860006542336729 -0.044584825124181195 -0.014837810210852342 -0.043147995171056788 0.0043751134248287806 -0.0046812050663134598 0.01704081293797375 -0.026211435311777498 -0.0058778019036165941 -0.034091131617981094 -0.0069533332130911583 0.013940488227829402 0.0015469765258079131 -0.011726594702378912 0.0036513310242943815 0.009321216802236347 0.028463905547264908 -0.02004405321250945 0.014477563332842109 0.0055898932501596459 -0.012626219318041702 -0.020169618380543628 0.0038268172956332463 -0.0018651180626933072 -0.024758831144736159 -0.005210057301064646 -0.027098876513815456 0.0012652968931119613
leaf_count=181504 7057 33613 2043 57415 34632 18403 129249 91700 3448 5412 49379 14193 162707 37203 19846 106670 75508 54911 81400 25578 221953 13332 51939 316287 29178 43180 112307 83115 6922 25370 31294 5712 125692 17582 35440 80713 46658 182419 27419 48582 18951 9135 18294 6915 32436 17814 101308 9541 47568 25246 16989 40370 26640 27608 186929 28764 9102 59448 33534 40438 28907 18034 30005 96273 35519 13365 20964 17769
internal_value=0 -0.361852 0.215461 -0.13999 0.107459 -0.0228655 -0.666698 0.41226 -0.34574 -0.207411 0.467701 0.222654 0.0913597 -0.381261 -0.521422 0.0187722 0.296266 -0.208442 0.10543 -0.393672 0.340143 -0.303767 -0.562778 0.156742 -0.114745 -0.0486277 0.331055 0.568225 -0.251284 -0.155162 -0.104471 -0.232034 0.246243 -0.921493 -0.217927 0.599682 0.137095 0.6446 -0.494848 -0.850879 -0.626563 -0.706683 -0.494932 -0.383498 -0.00263265 0.212575 0.251817 0.0218861 -0.0609187 -0.508348 0.0217078 0.135362 -0.147619 0.00214443 0.0305445 -0.00299539 0.193094 -0.439608 0.116861 0.0108423 -0.438171 -0.676847 -0.0208632 -0.112265 -0.360806 0.205705 -0.747342 -0.222678
internal_count=3714831 1386436 2328395 802439 1503364 705360 583997 825031 349503 289270 686673 798004 286686 156447 326482 452936 511318 214080 416090 179199 435810 136822 135423 334690 106165 332901 291047 395626 123490 86287 79365 53995 213857 19625 76987 346247 138358 265534 126981 257515 64043 76011 27429 41547 132823 180521 178740 127411 85873 44197 22701 77432 52218 257717 230109 76332 41538 62896 88165 54631 80846 147283 37062 151184 62938 120035 54577 75184
shrinkage=0.05


Tree=12
num_leaves=69
num_cat=0
split_feature=27 0 11 27 0 27 27 0 27 0 3 3 14 0 0 0 24 3 0 27 25 24 12 21 13 0 14 20 26 14 26 0 15 14 25 27 0 14 6 19 26 13 14 26 27 0 13 6 0 27 27 25 5 0 27 27 25 27 26 25 11 20 21 27 21 16 15 27
split_gain=261903 81330.7 50903.6 21933 22243.9 15587.2 13747.1 11833 13753 11010 8528.32 6373.04 5781.12 5404.44 4751.72 5635.85 4517.17 3949.03 3338.86 3169.65 3132.78 3079.16 2944.59 2756.17 2632.59 2608.91 2567.76 2564.99 2553.92 2436.91 2431.93 2425.92 2499.25 2397.95 2306.59 2852.27 2244.99 2342.19 2238.76 2168.62 2072.38 1982.33 1955.5 1935.64 1879.87 1878.44 1847.29 1796.34 1793.13 1778.65 1710.39 1581.81 1566.4 1556.53 1516.85 1557.19 1479.25 1466.37 1411.99 1390.49 1348.78 1436.18 1406.2 1447.19 1329.4 1576.34 1320.04 1306.34
threshold=881.01801582784958 5.0080600000000013 445.94349325894296 1113.3481878941009 4.7346900000000014 512.00000000000011 677.17703903637425 6.3843055000000009 1159.5000000000002 4.6066185000000006 -19.000016009434933 -9.0799200057978613 357.19798124279311 4.5440960000000006 4.4224305000000008 7.1441135000000004 358.41027096191618 -20.159840008915658 5.3982740000000007 1435.0000000000002 398.64321208962173 498.03552371458221 321.8278356617721 396.06468436056252 343.56322938124487 5.7761215000000012 432.79944502633549 354.11977668619357 397.52839756925749 394.23423274108694 371.84770596491677 6.774007000000001 322.68839302886937 336.0056005970626 410.65114757364091 1101.8461789047967 7.2563670000000009 446.92105075437945 5.5651984003171462 550.5114214037684 420.01682440497115 548.07893432460855 440.06449634115228 453.42174692552703 1649.5000000000002 7.7456915000000004 525.51748379092112 5.0012019201464817 4.5440960000000006 374.50000000000006 1052.0767497162612 373.5601421925906 4.7720047998465249 5.4733575000000014 944.0261747220444 981.24229759090235 394.3905147005031 1184.0227360462941 384.8749645558068 439.92880203285807 365.23046209500257 505.69132181176997 389.52446171534058 1191.2321427892127 388.86427599582692 359.9288365355406 385.18634528605611 673.56854592072921
decision_type=2 2 2 2 2 2 2 2 2 2 2 2 2 2 2 2 2 2 2 2 2 2 2 2 2 2 2 2 2 2 2 2 2 2 2 2 2 2 2 2 2 2 2 2 2 2 2 2 2 2 2 2 2 2 2 2 2 2 2 2 2 2 2 2 2 2 2 2
left_child=1 6 3 4 11 27 26 8 13 22 25 30 53 21 19 29 -13 18 -10 60 33 39 -8 24 54 44 40 49 -19 51 -2 32 -6 -11 35 66 37 67 46 41 -1 -4 -40 -32 -5 -9 -24 -42 -28 -3 -36 57 -31 -7 -18 -56 -26 -16 -21 -52 62 -62 63 -12 -53 -66 -25 -14
right_child=2 5 7 10 31 12 9 45 17 20 14 16 36 -15 15 -17 23 28 -20 58 -22 -23 38 34 56 -27 48 -29 -30 52 43 -33 -34 -35 50 -37 -38 -39 42 -41 47 -43 -44 -45 -46 -47 -48 -49 -50 -51 59 64 -54 -55 55 -57 -58 -59 -60 -61 61 -63 -64 -65 65 -67 -68 -69
leaf_value=-0.044199959585739482 -0.029905490304332913 -0.03863987582940985 0.0037911230023700755 0.017967880112906124 -0.0073625260478139588 -0.014534036980487787 -0.046578988918421549 0.0070611629713121351 0.031334515008369153 -0.042731765777967834 -0.021726297100034354 -0.047616573781288814 -0.004319218380208008 0.01677107334638436 0.0028133719810589427 -0.008314916707394723 -0.0046393875345731262 0.0026369747594644989 0.017915882567013049 -0.033132770287072351 -0.0065054513613954359 -0.021197556649147978 -0.035012507325734674 -0.044283594787199163 -0.015127246050845851 0.0038923066287280582 -0.035761399924128072 -0.012036316691958298 0.02164917882779727 0.010408427979840611 0.00087051866346998645 -0.0054885778733709725 0.0077388384803172838 -0.016468577850931147 -0.022495680691868865 -0.087798837365650709 -0.012239879527662336 0.012197956295584809 -0.025090824695802868 -0.015585707683184659 -0.041046880442016619 0.019572468242111188 0.0001838835269896829 -0.023028041319160888 0.031416086370449368 -0.0081406718083074977 -0.012271886248972831 -0.028012035118135683 -0.010129214432817816 -0.022054288487524342 0.0072027578784650721 0.013970887719216334 0.018909285106187442 -0.0049574001687027035 -0.059184683730359622 -0.020076386205133606 0.010991781315965916 -0.028685998709171601 0.010397267365936711 -0.020941077970734259 0.0011999372931425841 -0.020226807458440764 -0.019297699062881056 0.012134544669576178 -0.005658965357654127 0.0074652997261204007 -0.01963931346265663 0.0042799924993846931
leaf_count=158436 8543 23521 71793 111734 30622 65367 26900 116699 232316 11395 4909 14489 65272 190761 9987 46033 7553 18892 57938 1936 79004 11618 110868 9756 7916 25971 15649 43986 272970 140284 73395 52951 259986 36686 64827 2415 22461 68523 67640 10638 58835 27535 8625 9578 33880 24603 9720 48056 12109 51782 10104 58390 88346 120989 3895 7363 17194 5862 49021 7757 55714 9097 29762 8834 27833 128457 12289 136561
internal_value=0 -0.374575 0.188218 0.0663853 -0.0793878 -0.109175 -0.621236 0.357208 0.399691 -0.487682 0.171112 -0.301859 -0.0286497 0.230405 0.119786 0.167269 -0.418923 0.490523 0.573123 -0.0308161 -0.25261 0.0656307 -0.621192 -0.367758 -0.156754 0.369867 -0.781103 -0.432628 0.408374 0.200713 -0.0900728 0.0870775 0.122948 -0.453877 -0.454241 -0.724048 0.058974 0.0842147 -0.578773 0.117364 -0.811384 0.163328 -0.444636 -0.037753 0.421944 0.0882787 -0.663598 -0.703743 -0.49163 -0.544709 -0.374417 0.128154 0.27387 -0.166336 -0.43962 -0.672225 0.0551157 -0.176684 0.17485 -0.100348 -0.12758 -0.0361368 -0.263784 0.000719474 0.150664 0.102555 -0.610956 0.0299761
internal_count=3714831 1242385 2472446 1436683 600633 598462 643923 1035763 894461 350838 836050 257074 479173 312345 664465 505192 165558 582116 290254 159273 127085 121584 223753 151069 43921 171585 293085 119289 291862 459159 91516 343559 290608 48081 107148 24460 292817 270356 196853 109966 265327 99328 76265 82973 145614 141302 120588 106891 27758 75303 82688 230529 228630 186356 18811 11258 25110 15849 50957 17861 108316 64811 43505 13743 214680 156290 22045 201833
shrinkage=0.05


Tree=13
num_leaves=69
num_cat=0
split_feature=13 0 3 3 16 0 15 0 26 6 14 13 26 26 3 0 3 16 24 26 6 0 5 0 25 25 0 16 24 26 3 0 25 20 3 0 16 8 26 26 24 0 15 20 3 3 24 0 26 5 18 3 21 24 26 3 3 0 26 23 0 23 25 3 26 20 0 21
split_gain=159205 49268.6 33557.9 32807.2 21733.2 15517.7 15493.4 9940.48 8636.18 7720.05 7082.44 6577.68 5419.8 5218.85 4827.05 4652 4645.06 4407.08 4059.58 3879.68 3852.21 3811.17 3570.4 3563.85 3427.27 4293.52 3392.74 3227.22 2867.96 2856.38 2792.52 3587.47 2583.63 2564.14 2315.38 2247.12 2354.98 2246.55 2115.75 1982 2183.36 1978.98 1941.97 2003.64 1881.55 1805.48 1784.03 1725.51 1721.82 1709.54 1677.76 1551.66 1530.93 1526.17 1454.18 1448.96 1448.58 1439.8 1438.1 1433 1391.79 1331.89 1327.77 1324.16 1317.97 1302.16 1294.36 1260.89
threshold=409.41527821762747 4.7423940000000009 -17.040016010776039 -17.040016010776039 338.7334178435421 4.4996055000000004 333.0211505115264 5.8338505000000014 420.45574989374092 4.7182636820654311 520.64075680863959 482.59649228687096 413.0556475758238 455.2772069647221 -32.999983990565056 6.943169000000001 -27.478239992795583 415.85555653898513 376.87764218708907 434.65689879681867 4.7182636820654311 5.1880915000000014 12.10591072864152 6.5972835000000005 433.00319871564938 407.28673318654853 4.8605350000000014 372.52511175858268 410.30691934870441 432.69583983472108 -12.08324800555968 5.1764200000000011 382.80444379103579 395.1286213652117 -6.0000533368434494 6.4388715000000003 414.92545803758782 266.08566367003579 510.47151098876321 446.02408063071908 500.98238867088645 6.8147050000000009 378.40962165645004 507.34787839318483 -9.2398880050339685 -20.440055991951159 452.3531731584302 7.3180470000000009 401.69149272797398 4.3151832014122373 361.97728133972061 -10.021800022409854 325.87542587147584 375.63101160145658 404.42579957469746 -8.0731840053708535 -4.039888019113957 4.380112500000001 427.86993176789508 338.96004865526731 4.7988055000000012 456.90061291160254 340.97399599222501 -41.200160000474206 427.86993176789508 565.57150798819555 5.0182165000000012 485.31670543734214
decision_type=2 2 2 2 2 2 2 2 2 2 2 2 2 2 2 2 2 2 2 2 2 2 2 2 2 2 2 2 2 2 2 2 2 2 2 2 2 2 2 2 2 2 2 2 2 2 2 2 2 2 2 2 2 2 2 2 2 2 2 2 2 2 2 2 2 2 2 2
left_child=1 3 7 14 21 9 19 16 22 10 44 20 30 18 -1 51 60 58 59 55 26 29 27 54 25 -20 -7 -8 -26 45 -6 50 52 -30 -29 36 64 -34 -15 53 -41 -9 -35 46 -4 -3 67 -28 61 -46 -32 -14 -16 -21 -13 -5 -19 -27 -11 -10 63 -12 -23 -2 -22 -50 -53 -44
right_child=2 4 5 6 12 11 8 41 13 17 48 23 15 38 32 -17 -18 56 24 39 35 62 -24 -25 28 57 47 34 33 -31 31 -33 37 42 -36 -37 -38 -39 -40 40 -42 -43 43 -45 49 -47 -48 -49 65 -51 -52 66 -54 -55 -56 -57 -58 -59 -60 -61 -62 -63 -64 -65 -66 -67 -68 -69
leaf_value=0.019397547216540766 0.038136896083619344 0.0026956239798025857 -0.0096011418126520105 -0.027799516435964344 0.0059440203269504124 -0.0083108385191751882 -0.034018394303166638 0.012294000372292002 -0.030226960643509909 -0.021109236804239984 -0.017925471188514393 0.0069955064493465715 0.011603269968738027 -0.030284036591826886 0.0085312190534918269 -0.0076895396547908574 0.019150472841261031 0.013769044983814278 0.0032907886129175654 0.015456851090668822 -0.001839239979879228 -0.030812890469832922 -0.0047057352507602537 0.0040540840217038136 -0.028762165461271118 -0.030086160883097068 0.0065978885095941027 -0.013792514784502569 0.012459117989799977 -0.0068278228265267532 -0.025811531084980369 -0.0021782752355302983 0.0098430240647788634 -0.018532258981773488 -0.027725858461092774 -0.00084824391928223675 0.016561469626859639 -0.0084848812886010715 -0.00075641527141548403 -0.04462564299819774 0.031895863575728288 -0.00076373847312796825 -0.004698872067076424 -0.025283156482258068 -0.027148120482626287 -0.028949778788572827 0.012584576426802486 -0.0088039511604169913 0.0092838952966615759 -0.0098952661598997269 -0.010088830923622843 -0.0012788162400939945 -0.031963624614371675 -0.019989793435543191 0.018794558085328306 -0.042540035555083844 0.0020026606364008923 -0.016992276768560119 0.0007878872864764924 0.016787732798948039 0.023375807835965479 -0.10595207523086991 -0.0097332960977883111 0.028100742991044265 0.01355627668357348 -0.010146664043362218 0.0063378316248878354 -0.053577973246459791
leaf_count=39358 51974 4799 46645 19601 60582 64903 103830 82601 1787 17513 2774 29386 106545 49285 3052 68165 284773 74160 19145 3429 34321 7776 18555 60720 11571 38396 168740 50275 22210 22607 23857 193020 38810 24130 73335 36079 128195 29373 6922 12583 1006 44719 15798 7236 52976 73450 22531 20379 46141 19710 58822 71735 9897 26445 235451 112346 40427 46386 13105 17359 75502 509 191491 89620 23360 10602 250606 1440
internal_value=0 -0.195934 0.21873 -0.38167 -0.0605638 0.115375 -0.464021 0.403709 -0.378785 -0.0690979 -0.207869 0.190074 0.0225349 -0.260037 0.100576 0.0888693 0.467019 0.102305 -0.192746 -0.721648 0.115151 -0.291302 -0.515968 0.299611 -0.233151 -0.361868 0.0310539 -0.55038 -0.105639 -0.449707 -0.07551 -0.118229 -0.0388203 -0.047417 -0.441185 0.211394 0.255724 0.0389346 -0.53297 -0.462471 -0.779143 0.154146 -0.140036 -0.0216319 -0.348807 -0.540167 0.0664143 0.0987594 0.0722994 -0.449408 -0.292524 0.127439 -0.448311 -0.318391 0.349711 -0.807013 0.192364 -0.458456 -0.234707 0.247942 0.577213 -0.631771 -0.211123 0.6357 0.0878982 0.113052 0.0928529 -0.175698
internal_count=3714831 1959546 1755285 826091 1133455 1126096 705601 629189 530191 324562 179357 801534 833332 284196 120490 497051 501869 145205 227989 175410 475977 300123 245995 325557 208843 103927 254022 227440 104916 100856 336281 275699 81132 93345 123610 221955 185876 68183 56207 43463 13589 127320 71135 47005 119331 78249 39769 189119 60026 72686 82679 428886 12949 29874 264837 131947 114587 84782 30618 19146 217096 3283 199267 141594 57681 56743 322341 17238
shrinkage=0.05


Tree=14
num_leaves=69
num_cat=0
split_feature=27 0 3 0 27 27 0 27 27 15 14 0 0 0 0 24 14 12 14 27 13 0 13 10 0 0 0 26 22 5 27 6 26 0 26 26 25 24 27 15 20 27 0 26 21 0 12 20 0 4 27 25 4 0 27 16 24 6 26 25 27 25 15 25 27 27 26 13
split_gain=223373 68793.4 41059.8 17918.4 16817.3 14297.3 10848 13013.9 8393.7 6946.32 5773.79 5557.49 5194.89 5148.56 4802.99 3835.2 3646.28 3404.58 3162.83 2805.67 2782.29 2305.84 2248.26 2204.44 2171.13 2133.83 2128.16 2172.34 2042.14 2030.97 2015.69 1962.72 1953.64 1924.18 1865.24 2166.68 2368.97 1846.11 1762.87 1762.49 1744.35 1925.1 1692.05 1679.29 1577.07 1510.08 1504.3 1489.59 1467.54 1454.64 1451.78 1420.8 1390.07 1369.87 1336.18 1458.48 1302.39 1300.59 1705.89 1519.36 1260.34 1965.12 1250.55 1292.85 1229.5 1202.88 1173.05 1273.36
threshold=881.01801582784958 4.8337040000000009 -11.000000016763805 4.4892195000000008 591.16407643346759 1113.3481878941009 6.3316325000000004 1243.0833504804723 702.50000000000011 382.97385471882581 354.87123144919741 7.2563670000000009 4.4006620000000014 5.5195490000000005 4.5440960000000006 358.41027096191618 394.23423274108694 484.44865801875045 445.67270237867893 1215.5000000000002 451.81600553083155 5.3427505000000002 440.82694108335448 523.72123925847939 5.4426905000000003 4.8513935000000012 4.8246025000000001 382.26632506566835 358.82924675388551 4.5099993596226033 1649.5000000000002 5.4619473645318504 450.5877752718215 7.7456915000000004 423.84999159523335 450.18310333982208 446.80256052953268 402.8735891331084 374.50000000000006 373.34925001042569 527.95488563636275 1093.2907791029859 6.5015140000000011 348.77626328788523 391.35807194783547 6.0407795000000011 566.85268548704664 341.19592324293802 5.2253380000000016 33.00011200737125 374.50000000000006 382.80444379103579 10.00000436392359 6.8960995000000009 503.50000000000006 282.32708441461335 397.58750491936524 5.6169897607674022 366.1158398556525 400.44346880301038 702.50000000000011 398.25353539595773 327.96382995690584 371.06125998995174 1649.5000000000002 1369.9020796574498 407.55273684918353 370.93264573296216
decision_type=2 2 2 2 2 2 2 2 2 2 2 2 2 2 2 2 2 2 2 2 2 2 2 2 2 2 2 2 2 2 2 2 2 2 2 2 2 2 2 2 2 2 2 2 2 2 2 2 2 2 2 2 2 2 2 2 2 2 2 2 2 2 2 2 2 2 2 2
left_child=1 8 6 5 13 15 7 14 34 26 21 19 -10 37 20 -4 65 30 43 25 40 60 48 31 49 52 27 -5 50 46 62 -17 -22 -8 -1 36 54 38 -3 -16 41 -2 -28 -14 -29 -21 64 -43 -12 -19 -15 -49 -11 -50 55 -36 -56 58 -45 -60 -6 -62 -9 -64 -18 -7 -53 -68
right_child=2 4 3 9 10 16 33 17 12 11 22 -13 18 28 39 23 29 24 -20 45 32 -23 -24 -25 -26 -27 42 44 -30 -31 -32 -33 -34 -35 35 -37 -38 -39 -40 -41 -42 47 -44 57 -46 -47 -48 51 53 -51 -52 66 -54 -55 56 -57 -58 -59 59 -61 61 -63 63 -65 -66 -67 67 -69
leaf_value=-0.039830138615531689 -0.0069433391157152817 -0.047966599649097441 -0.047813680803483478 -0.024022579583137589 -0.024056771414275854 -0.011292738580850592 0.0048251241843839006 -0.0091340290661403086 -0.032362917760914788 -0.0047877010269636805 -0.0067779535057484498 -0.0056008959661671825 -0.062195623814815582 -0.033499908596947452 0.006926618181598493 -0.022355054386048179 -0.0046564788162925053 0.025305720963278228 -0.0040309958966319413 0.017276770675127763 0.01513089684392209 -0.0046049043797343715 0.0091544772856224817 0.0040400461670217934 0.016916660989679158 0.010318185949804616 0.0047108907706637695 0.0066487974628011834 -0.005636613521053691 0.014864511797507265 0.02416390119163099 -0.0094132735053423476 -0.0034723163142766828 -0.011302689391996135 -0.00337605152155527 -0.043825280500339042 0.0038845070579117146 -0.015826134401967437 -0.027727474381496021 0.016882103652969292 -0.039091691038362936 0.028304337876543614 -0.0055917164875352796 -0.0031104359749224088 -0.0098826890649288471 0.0077241605736581764 0.018307120758236716 -0.021254387167879391 0.0042238000832065942 0.033871163261681957 -0.014047172174893451 0.018272862152012827 0.0074179987239761718 -0.0083825042291215922 -0.01001165390172596 -0.043361993394132402 -0.02952296593160263 -0.014961763714708904 -0.037209088100421173 -0.02174845019235562 -0.022298751065299396 0.0011964573168684925 -0.012866737518255587 0.016578285252852425 0.014375159845055939 0.0016408829426830078 -0.021304445984854994 0.0063888836017894253
leaf_count=175060 48878 13352 10359 15578 29702 50253 121266 5063 116725 46284 63140 57532 2538 13065 55419 90802 49868 167417 30645 172870 67291 110775 86952 12174 56228 231822 172221 24594 63399 50302 96425 43273 17853 21821 2559 25345 5770 25188 55601 225123 2923 7061 51848 7733 34891 54414 11519 5099 135341 70489 36143 14093 47025 25629 11692 21150 31940 51043 26505 39751 17150 18492 3798 196928 10226 27981 5391 18044
internal_value=0 -0.345927 0.173822 0.0480041 -0.136726 -0.141917 0.305815 0.340594 -0.610614 0.122537 -0.0353106 0.183753 -0.487214 -0.375697 0.21561 -0.36823 0.0351592 0.438504 -0.369133 0.214558 0.0912886 -0.179991 0.0466023 -0.326572 0.515101 0.154966 -0.00228167 -0.148015 -0.231395 0.143286 0.363952 -0.363568 0.224592 0.0473055 -0.734653 -0.624492 -0.537114 -0.548295 -0.632945 0.298313 -0.0205369 0.00203013 0.0465345 -0.438433 -0.0609394 0.2998 0.0350974 0.140649 -0.00634886 0.556875 -0.384259 0.0701546 0.0272621 0.0443276 -0.589807 -0.780964 -0.485913 -0.422074 -0.506805 -0.558681 -0.328977 -0.20215 0.308036 0.320418 -0.0283426 -0.133326 0.13747 0.000324984
internal_count=3714831 1242385 2472446 1265836 693929 356757 1206610 1063523 548456 909079 487181 609947 274940 206748 467175 156608 200149 596348 158215 552415 186633 176119 311062 146249 294134 325131 299132 75063 112607 121915 302214 134075 85144 143087 273516 98456 73111 94141 68953 280542 101489 98566 224069 127570 59485 227284 71613 49688 224110 237906 49208 42627 93309 160970 67341 23709 43632 125032 73989 66256 65344 35642 205789 200726 60094 78234 37528 23435
shrinkage=0.05


Tree=15
num_leaves=69
num_cat=0
split_feature=27 0 3 27 0 0 27 27 27 0 15 0 0 15 0 27 13 15 13 11 0 3 6 6 0 0 26 3 0 16 0 27 26 27 13 25 25 13 8 13 26 6 26 15 25 27 0 27 13 15 26 19 0 6 13 21 25 23 25 26 20 27 27 3 0 27 10 22
split_gain=201872 65513.9 33385.1 19945 12814.7 10964.2 11998.4 9621.64 8660.09 8453.83 5524.78 4698.77 4462.83 4248.58 3982.41 3849.87 3494.56 3481.79 3388 3021.05 2637.33 2586.82 2467.5 2383.47 2938.76 2328.9 2206.38 2099.27 2087.96 1879.29 1843.73 1813.89 1706.85 1705.31 1703.26 1676.67 1562.28 2123.43 1476.07 1448.83 1441.78 1416.87 1685.95 1303.39 1302.46 1296.84 1283.54 1279.98 1251.04 1240.65 1231.04 1308.02 1204.62 1200.68 1199.08 1211.27 1171.71 1866.22 1142.66 3235.85 1216.72 1129.49 1111.39 1105.53 1101.38 1082.61 1080.6 1078.59
threshold=925.19590381759485 4.7346900000000014 -9.0799200057978613 673.56854592072921 4.4547665000000007 6.2791085000000004 1243.0833504804723 702.50000000000011 1233.3642197833196 5.2499695000000006 336.785413626962 4.4500055000000005 7.3180470000000009 404.2271483433845 4.3879865000000011 389.50000000000006 482.59649228687096 330.8294994280015 402.38331472747842 498.00150703985992 5.5032095000000014 -24.133557450062579 4.5299998399056518 4.7182636820654311 4.9175495000000007 5.0609170000000008 406.39296248432044 -22.99998399056506 7.543371500000001 344.44312071363487 4.8976855000000006 1144.2200479900837 382.81495389650428 620.01891304148717 400.75671811137755 371.06125998995174 469.50989526158145 451.81600553083155 24.000000050291423 459.26155818324327 413.0556475758238 5.1761251197857785 420.73141546294443 393.53515688224223 398.64321208962173 731.6993600115228 7.3180470000000009 942.21140481944292 401.50328145696875 475.71111454401728 412.62617305020535 516.39053432217509 6.1538335000000011 5.5124582408557972 505.35095541621399 489.0793167746088 349.13641181810334 321.83322666141174 512.40085437029745 483.3563556438458 527.95488563636275 1151.2723214139955 939.96754289556668 -39.159920005798931 6.8548885000000013 1178.4925437942704 446.16112390618025 362.73488854635463
decision_type=2 2 2 2 2 2 2 2 2 2 2 2 2 2 2 2 2 2 2 2 2 2 2 2 2 2 2 2 2 2 2 2 2 2 2 2 2 2 2 2 2 2 2 2 2 2 2 2 2 2 2 2 2 2 2 2 2 2 2 2 2 2 2 2 2 2 2 2
left_child=1 7 5 9 8 6 11 41 17 26 30 27 16 25 53 -11 23 47 63 38 21 -20 54 24 31 44 33 -2 -7 -17 61 -12 -10 -3 -13 -23 37 -29 -16 -34 -25 49 -43 -28 45 -5 66 -4 -44 56 51 -39 -42 -9 55 -19 57 -1 60 -60 -36 62 -6 -8 -27 -49 -15 -46
right_child=2 3 4 13 10 28 18 14 32 15 12 34 -14 46 19 29 -18 22 20 -21 -22 35 -24 40 -26 64 43 36 -30 -31 -32 -33 39 -35 58 -37 -38 50 -40 -41 52 42 48 -45 67 -47 -48 65 -50 -51 -52 -53 -54 -55 -56 -57 -58 -59 59 -61 -62 -63 -64 -65 -66 -67 -68 -69
leaf_value=0.021759591061235092 0.012455006195502381 -0.035894918840163291 0.007855956767733532 -0.033977086406755792 0.016688938068721418 0.0052174629468412226 0.023190105098913821 -0.032501203666665104 -0.025473462007424359 -0.024780256264631758 -0.011553975905443671 0.0082862249687620688 -0.0067235160030825643 0.0042490061202111106 -0.0323353540312648 -0.012500481094833694 0.016065188886420122 -0.018223815645766965 0.027966760808331284 0.0014550525873315463 0.014330529968675568 -0.012847976255844343 -0.0056894157557686124 0.0032745192766630796 0.0068108300055515179 0.000735161081532413 -0.022206265266599301 -0.0049410641219912706 -0.0084889292681555231 -0.0026928546351735624 -0.0016277602297618558 0.0031132226246441672 0.0012618388155864768 -0.017823269966088177 0.017760976754611028 0.020793697279608142 -0.017276900828999627 0.0020236323802513365 -0.017899687262475615 0.014606537961241953 0.014041984839035871 -0.037548442069310933 -0.027888717693304761 -0.0040621409447562313 0.014833593735286291 -0.011952057228979969 -0.0092256684225460409 -0.04550611202607293 -0.0056752949394147725 -0.012013565910106529 0.014611428921270701 -0.04886926144972658 0.0040222616866633495 -0.02287143776806834 -0.0023782097570456272 -0.03645038497886368 -0.040610178466311764 -0.03971187767939785 -0.064800827233437941 0.014215396114081989 0.0065647946370434602 -0.0034969069851602239 -0.029071055043035712 0.010652040699838947 -0.010037560583648422 -0.0058572455953645637 0.012424854811520798 -0.00821156687456699
leaf_count=1980 42066 52688 1499 9393 1448 136055 21433 87284 4772 34990 44819 110593 54669 93840 20490 84131 114444 47333 202155 18682 88037 3762 69444 62831 164529 193565 44818 56370 34914 116488 57066 39789 69949 17370 202842 231959 12538 9163 130928 28684 149444 48334 36527 12712 5897 23211 11907 13621 7676 4155 32580 1464 37548 51525 9269 11299 140025 3277 1669 5791 27579 9220 15700 98074 27040 1974 71021 36482
internal_value=0 -0.302099 0.179881 -0.125592 0.0429943 0.284627 0.31981 -0.569816 -0.149367 -0.301787 0.108995 0.203965 0.139297 0.00988345 -0.45284 -0.189511 0.163697 -0.299328 0.410029 -0.350257 0.444569 0.476325 -0.246347 0.127546 0.0583304 -0.0634552 -0.509114 0.0586034 0.0483634 -0.13612 -0.133622 -0.0931161 0.0745957 -0.628299 0.268277 0.405132 -0.0128634 0.0290151 -0.397069 0.102863 0.196568 -0.719145 -0.621852 -0.363958 -0.215706 -0.365976 0.132524 -0.724962 -0.480647 -0.779386 0.195819 -0.0996628 0.240606 -0.578541 -0.381903 -0.434742 -0.794798 -0.331004 0.315951 -0.069129 0.328422 -0.352314 -0.504085 0.258022 -0.0117012 -0.809809 0.155428 -0.100074
internal_count=3714831 1386436 2328395 835553 1009351 1319044 1148075 550883 257844 363197 751507 502655 668073 472356 308909 235609 613404 154439 645420 170100 525913 437876 137345 498960 249137 295588 127588 154181 170969 200619 83434 84608 103405 70058 348474 235721 112115 99577 151418 98633 249823 241974 92537 57530 74983 32604 176768 17094 44203 149437 43207 10627 186992 138809 67901 58632 145282 5257 237881 7460 230421 26368 17148 119507 220605 15595 164861 42379
shrinkage=0.05


Tree=16
num_leaves=69
num_cat=0
split_feature=27 0 12 27 0 27 27 0 0 27 3 15 0 0 0 26 24 25 12 27 13 19 20 19 14 0 14 24 12 14 26 20 27 0 3 26 5 26 14 13 26 0 21 0 22 11 15 25 6 18 27 24 25 0 25 0 16 22 22 25 21 21 15 27 0 27 25 27
split_gain=182656 56844.6 34456.4 16057.6 14291.5 11051.4 9690.94 8532.29 8395.05 10079 6186.34 4142.17 4116.79 4464.74 4057.27 3184.67 2962.55 2784.65 2695.66 2561.02 2374.16 2353.97 2333.33 2218 2182.98 1971.43 2202.16 1970.78 1917.81 1860.2 1776.1 2319.46 1771.81 1749.71 1732.58 1982.35 1719.49 1705.01 1702.87 1683.27 1667.93 1655.96 1528.56 1497.39 1456.74 1651.45 1449.46 1397.46 1476.56 1393.18 1378.51 1437.11 1783.13 1365.57 1351.96 1341.98 1340.28 1644.03 1320.81 1602.08 1318.04 1316.47 1538.65 1311.92 1305.23 1294.07 1280.62 1269.59
threshold=881.01801582784958 5.0288020000000007 444.37773237791851 1089.1087198715011 4.5440960000000006 503.50000000000006 677.17703903637425 4.5381170000000006 6.4701235000000006 1159.5000000000002 -23.99998399056506 377.05350402312655 4.380112500000001 6.4701235000000006 4.599809500000001 370.84261763306648 496.46653890767124 397.73974466657637 571.02100533247506 1435.0000000000002 350.66153545768253 345.79196320833972 403.43526719676441 550.5114214037684 321.76125911536474 4.5803725000000011 431.73902434693565 330.34255903386537 321.8278356617721 321.76125911536474 403.30497002936517 454.13247077096565 671.09876830616031 7.1441135000000004 -18.000080030410881 397.52839756925749 7.0760860808377197 406.39296248432044 550.40144082414315 515.72767990243665 367.4749081085717 5.5512265000000012 335.90573387104263 5.3982740000000007 363.60620229971022 498.00150703985992 333.0211505115264 389.20511825239299 4.8940222418497532 537.59268713568019 346.06043218233827 434.51007360581315 373.5601421925906 7.8688480000000007 424.75841335781496 5.4426905000000003 449.00498198775534 521.14281508496958 489.37644243205767 478.36928719009558 407.76190392596556 494.8866825838831 347.78000071738978 1178.4925437942704 7.8688480000000007 795.05476803384897 417.70730102209683 1191.2321427892127
decision_type=2 2 2 2 2 2 2 2 2 2 2 2 2 2 2 2 2 2 2 2 2 2 2 2 2 2 2 2 2 2 2 2 2 2 2 2 2 2 2 2 2 2 2 2 2 2 2 2 2 2 2 2 2 2 2 2 2 2 2 2 2 2 2 2 2 2 2 2
left_child=1 6 3 4 15 27 25 28 9 14 41 46 19 20 16 -2 23 21 34 61 63 -9 24 30 42 32 37 -3 -8 -6 31 -4 -1 -13 43 -36 39 -27 -32 -30 65 -5 -17 -11 -19 -46 -7 60 -49 -37 51 52 -29 -10 -44 -20 -24 -58 59 -18 -22 62 67 -14 -15 -23 -25 -12
right_child=2 5 8 10 29 11 7 17 53 18 12 33 13 64 -16 22 58 44 55 -21 47 40 56 66 -26 26 -28 50 36 -31 38 -33 -34 -35 35 49 -38 -39 -40 -41 -42 -43 54 -45 45 -47 -48 48 -50 -51 -52 -53 -54 -55 -56 -57 57 -59 -60 -61 -62 -63 -64 -65 -66 -67 -68 -69
leaf_value=-0.034594663400208781 -0.038500804430071728 -0.045485377260146231 -0.00061145917590387389 0.019589011126323851 -0.0081814974565538132 -0.01058122431197042 -0.040570384360162109 -0.037627413125296105 0.0051906505630981391 0.023392368253343208 -0.033801800576405416 0.0051484357134211831 -0.0056408350014986505 -4.4040140335787714e-05 0.014081863534781297 0.0089229980715459702 0.003675763600885288 0.010156820067144199 0.027390511784033462 0.0077932785678299825 0.0086152857235429117 -0.013983816334701502 -0.023870381511498551 -0.10425380113403489 -0.0017306779234976359 -0.035592339086958573 -0.0070023014036003847 -0.0078169656370636418 -0.030008824765828553 0.0027832382074256339 0.0062343165784088652 -0.058532985233102033 -0.055124253930462976 -0.0090170601612671389 -0.0017575316050198492 0.018911617982180107 -0.016472361554571945 -0.023486158191774065 0.021616316613810711 -0.010708385933267742 -0.020846086968881246 0.0039059393574523054 -0.049481339509067745 0.013056439226352377 -0.011431743447239641 0.0084454778520764526 -0.0026641962679403355 0.008384475358882662 0.014845614851469902 0.0094516992871386471 -0.014031739051092063 0.0099117060376290589 -0.041564202173125002 -0.0086721088254018402 -0.013935045212883641 0.016901678525122889 -0.0061352842148091448 -0.043460018164595597 -0.010005062086071151 -0.067925257436387762 -0.0080884374631694685 -0.020808634975297821 -0.0013211415399352142 0.0059834220345689297 -0.014918289447441727 0.017931858704862514 -0.012046219364694594 -0.0061319157569293715
